#pragma once
#include "FlareNet.h"

const model_type_weights conv2d_weights_0[3][3][3][16] = {{{{-1.87506825e-02,  3.86717282e-02,  1.92070439e-01,
        5.08047163e-01,  5.33062041e-01,  1.03327177e-01,
       -6.34603918e-01,  2.16262857e-03, -3.14049661e-01,
        7.07001448e-01, -1.63334751e+00, -3.57024521e-01,
        2.12189600e-01,  2.57095069e-01, -2.27865726e-02,
       -2.32017506e-02},
      { 2.22562686e-01,  2.61577129e-01,  6.70416504e-02,
       -6.58646286e-01,  5.52681625e-01,  4.99640793e-01,
       -7.89727688e-01, -4.14521486e-01, -5.75539887e-01,
       -3.59848976e-01,  1.47362983e+00,  2.39098087e-01,
       -2.24705935e-02, -1.25695020e-01,  9.93374825e-01,
        1.08373314e-02},
      { 3.39129061e-01,  4.38764215e-01,  2.89709002e-01,
        1.07219625e+00, -7.64577016e-02, -2.95177847e-01,
       -7.97714472e-01,  1.16253234e-01,  3.63104343e-02,
       -4.77220453e-02,  1.09373701e+00, -3.25128257e-01,
        1.43048555e-01,  3.88152361e-01, -2.75770277e-01,
       -1.41669530e-02}},

     {{-3.30631912e-01,  3.67144376e-01,  2.28972569e-01,
       -2.07442611e-01,  4.32057172e-01,  1.47647277e-01,
       -3.10658365e-01, -8.15414414e-02, -3.43560070e-01,
        3.10045451e-01, -5.06389320e-01, -5.81361234e-01,
       -1.78664997e-01, -2.11259082e-01, -2.15382844e-01,
       -4.75561887e-01},
      {-4.74754453e-01, -4.01622832e-01,  6.51827693e-01,
       -1.28236878e+00, -1.42020702e-01,  5.34880579e-01,
       -9.43933666e-01,  1.04561396e-01,  3.64257209e-02,
        1.60731867e-01, -4.18998986e-01, -1.43429628e-02,
        9.86415595e-02, -4.34115171e-01, -9.60096180e-01,
       -4.56878960e-01},
      {-1.56742647e-01, -3.18966061e-01,  2.66133755e-01,
       -2.09445983e-01, -4.18279648e-01, -8.27794615e-03,
       -4.14542526e-01,  2.60511726e-01,  3.83792251e-01,
        1.21310428e-01, -3.94734383e-01, -8.68667290e-02,
       -4.50900942e-02,  1.88322201e-01, -9.41159725e-01,
       -3.10265869e-01}},

     {{ 2.31888462e-02, -4.64468420e-01, -3.32160741e-02,
        4.28771317e-01,  5.28138816e-01, -2.90300939e-02,
        1.90726727e-01,  3.51907581e-01, -3.86546165e-01,
        5.90717673e-01, -1.49514556e+00, -2.58236021e-01,
       -4.64748926e-02,  8.79666731e-02, -7.90531561e-02,
        2.83758461e-01},
      { 1.78011954e-01,  1.39788881e-01, -4.08659987e-02,
       -3.73205841e-01,  5.63038945e-01,  4.47635412e-01,
        4.13532585e-01, -1.19045772e-01, -5.72494090e-01,
       -4.38914657e-01,  1.40741646e+00,  5.38172543e-01,
       -2.25391816e-02, -1.60997778e-01,  9.36410010e-01,
       -3.20471913e-01},
      { 3.60426009e-01, -3.50020051e-01,  3.18334997e-01,
        7.41825163e-01, -5.75147942e-02, -2.48596698e-01,
        1.59449220e-01,  1.30952939e-01,  1.46592274e-01,
       -3.48041095e-02,  1.04921508e+00, -2.33073324e-01,
       -2.95266122e-01,  4.09768820e-01, -1.39733598e-01,
       -1.62384838e-01}}},


    {{{-1.15457408e-01, -5.37015855e-01,  3.12778771e-01,
       -2.03143239e-01,  2.54051924e-01,  1.97375149e-01,
        1.46429136e-01, -3.40674222e-02, -3.33224922e-01,
        3.38183999e-01, -3.22972625e-01, -1.46211728e-01,
       -7.15377569e-01,  1.60761848e-01, -2.97072709e-01,
        6.49284244e-01},
      {-5.25913835e-01, -2.31685832e-01,  1.03719640e+00,
       -1.15043974e+00, -1.32922098e-01,  7.43246198e-01,
        2.69641340e-01, -5.07852077e-01,  1.93294004e-01,
        4.62292910e-01, -5.51531315e-01,  1.85056627e-02,
       -6.49918139e-01,  1.08510040e-01, -9.62735593e-01,
        6.39464796e-01},
      {-9.32692215e-02, -1.88475162e-01,  4.01693523e-01,
       -2.79440910e-01, -4.17114645e-01,  1.08882524e-01,
        6.77870810e-02,  7.35547319e-02,  3.79561752e-01,
        2.18447164e-01, -3.47112477e-01,  3.55256796e-02,
       -6.69064164e-01,  2.58852243e-01, -7.45435357e-01,
        6.46894157e-01}},

     {{-1.03108343e-02, -6.01490557e-01,  6.49519324e-01,
       -6.26710773e-01, -1.69962525e-01,  3.34633023e-01,
        2.18784034e-01, -1.39434800e-01,  6.97457651e-03,
       -4.42830008e-03,  9.62432981e-01,  3.25957268e-01,
        1.03355420e+00, -3.79776120e-01, -6.76658094e-01,
        5.72739363e-01},
      {-1.98862541e+00, -5.29062569e-01,  1.80471349e+00,
       -2.22552633e+00, -1.31470621e+00,  6.54556274e-01,
       -1.26689196e-01,  7.96712458e-01,  1.18787086e+00,
        1.25612009e+00, -3.44597554e+00,  9.23504651e-01,
        1.05163240e+00, -1.31635833e+00, -3.24374127e+00,
        1.29742360e+00},
      {-1.66705334e+00,  8.27010870e-02,  6.30723655e-01,
       -1.99654496e+00, -1.57511699e+00,  7.08458066e-01,
       -1.23363815e-01,  8.35355073e-02,  1.38163245e+00,
        3.16075385e-01, -2.39537883e+00,  1.40813577e+00,
        9.53924477e-01, -3.17368597e-01, -1.18645239e+00,
        7.87944853e-01}},

     {{-6.38865978e-02,  9.04201686e-01,  3.91326219e-01,
       -5.21848910e-02,  3.24291050e-01,  2.59781271e-01,
       -3.39686051e-02,  4.46370989e-02, -2.95354784e-01,
        2.98460692e-01, -4.07668978e-01, -4.65116590e-01,
       -2.42982715e-01,  5.49257547e-02, -2.46474430e-01,
       -4.41938072e-01},
      {-5.15667498e-01,  7.24621117e-01,  6.76644623e-01,
       -1.44423854e+00, -1.30056083e-01,  5.33919692e-01,
        5.09902954e-01,  3.98944587e-01,  9.29031670e-02,
        1.88537508e-01, -5.42299390e-01,  5.83071858e-02,
       -5.92201412e-01, -2.11131260e-01, -9.68806326e-01,
       -3.78505021e-01},
      {-2.33510837e-01,  4.26586956e-01, -2.03647271e-01,
       -1.05307765e-01, -5.92125714e-01, -2.34706819e-01,
        3.95512909e-01,  3.92133117e-01,  4.15832341e-01,
       -6.11111559e-02, -3.05775017e-01, -5.55081703e-02,
        1.31168917e-01, -2.65537202e-01, -7.20696926e-01,
       -2.87765861e-01}}},


    {{{-1.68865502e-01, -4.43425596e-01,  4.25929755e-01,
        4.19984639e-01,  5.16593933e-01,  2.46903047e-01,
        3.35329212e-02, -2.50726730e-01, -1.39325589e-01,
        8.46259117e-01, -1.67662179e+00, -2.59675086e-01,
        2.04348013e-01,  7.68155336e-01,  8.89000967e-02,
       -5.63996807e-02},
      { 4.17638540e-01, -3.70594263e-01,  9.47604328e-02,
       -4.90553319e-01,  3.74314994e-01,  5.01160800e-01,
        2.82457411e-01, -9.12104785e-01, -5.65974236e-01,
       -2.60548413e-01,  1.58305991e+00,  2.17287198e-01,
        2.69434541e-01, -4.81768176e-02,  9.79459584e-01,
       -3.36201966e-01},
      { 3.19338799e-01, -5.33661962e-01,  5.20719707e-01,
        9.84915614e-01, -3.98451602e-03, -1.25175029e-01,
        3.27127486e-01, -2.16339186e-01, -5.48114739e-02,
        1.26145199e-01,  1.06694961e+00, -2.70332694e-01,
        2.30007276e-01,  6.40724242e-01, -2.62298822e-01,
        2.37950504e-01}},

     {{-3.95660512e-02, -2.99302816e-01,  3.19542825e-01,
       -4.50099930e-02,  2.62555480e-01,  2.32965514e-01,
        1.57928482e-01,  3.17716658e-01, -4.27042067e-01,
        3.26404899e-01, -3.60788256e-01, -5.04874229e-01,
       -3.30848336e-01,  1.29229680e-01, -2.54271597e-01,
        3.91125120e-02},
      {-6.33506536e-01, -6.77089632e-01,  8.69270980e-01,
       -1.43114686e+00,  1.75336868e-01,  6.97798431e-01,
        4.18796301e-01,  2.02146173e-01,  3.81688923e-02,
        2.55770653e-01, -6.34546220e-01,  4.97628972e-02,
       -2.58061826e-01, -1.28213033e-01, -1.20380008e+00,
       -1.11330062e-01},
      {-2.51052946e-01, -2.35238135e-01,  3.45581025e-01,
       -2.29465351e-01, -3.72277528e-01,  2.82096807e-02,
        3.76109704e-02,  3.32688510e-01,  3.34037721e-01,
        1.95030957e-01, -3.45961422e-01, -8.48832875e-02,
       -2.75646329e-01,  3.89277577e-01, -6.96976244e-01,
       -1.37358889e-01}},

     {{-2.18074784e-01,  1.03993416e+00, -9.92210135e-02,
        4.43045229e-01,  6.00054920e-01, -7.54181445e-02,
        3.16927508e-02,  4.18772399e-01, -2.89256841e-01,
        5.60905755e-01, -1.57175064e+00, -2.60881990e-01,
        4.13155258e-02,  5.04138395e-02, -1.49638653e-02,
       -3.53312820e-01},
      { 3.12623262e-01,  9.77771580e-01, -6.71432689e-02,
       -4.60388929e-01,  2.91478157e-01,  4.62598145e-01,
        4.29634273e-01,  2.82353938e-01, -6.02149546e-01,
       -4.90590811e-01,  1.50082672e+00,  1.24818616e-01,
        1.38200536e-01,  5.80357909e-02,  1.01712954e+00,
       -5.92343807e-01},
      { 4.04220164e-01,  6.37765646e-01,  3.01609933e-01,
        9.45459664e-01,  8.83855745e-02, -2.44502485e-01,
        1.18124597e-01,  4.92900789e-01,  9.65862721e-02,
       -9.42115337e-02,  1.01082110e+00, -1.42130449e-01,
       -2.23950237e-01,  3.58766109e-01, -2.83454895e-01,
       -6.57252550e-01}}}};

const model_type_weights conv2d_bias_0[16] = {1.3374908e+00, -3.4263331e-02, -4.0486638e-02,  7.5681812e-01,
        1.7982773e-01, -3.6290931e-03,  8.3076991e-02,  9.4406512e-03,
        3.4039434e-02, -1.2857649e-02,  6.1043364e-01, -9.1925692e-03,
       -8.1762270e-04,  4.1962332e-01,  1.4515924e+00,  3.7841234e-02};

const model_type_weights conv2d_depth_weights_1[3][3][16] = {{{ 0.13343582, -0.30938652, -0.10087255, -0.02434237,
        -0.09727507, -0.01657159,  0.02595942, -0.05354729,
        -0.19831565,  0.02774946,  0.01102297,  0.22541225,
         0.03807664,  0.01489577, -0.31624383,  0.12738048},
       { 0.17865953, -0.2417489 , -0.29524365, -0.05714715,
         0.05042062,  0.01386162,  0.02654623, -0.03206468,
         0.05887144,  0.05869994, -0.05872975, -0.18756343,
         0.06379805,  0.06911054, -0.31744757,  0.20808944},
       { 0.05299081, -0.06735872, -0.04924465,  0.02230928,
        -0.00941963,  0.1202921 , -0.00817307,  0.10802922,
         0.03203481,  0.08628818,  0.04570266, -0.23460525,
         0.17214857,  0.05861916, -0.0410245 ,  0.0231294 }},

      {{-0.35475668, -0.7737859 , -0.27116737,  0.12870677,
        -0.01382365,  0.16777714,  0.2118067 ,  0.07763755,
        -0.1868253 ,  0.27611274,  0.13923416,  0.04393749,
        -0.04585679,  0.2959143 , -0.09407603,  0.06670931},
       { 0.5113282 , -0.91948545, -0.5782468 ,  0.09647606,
         0.22257277,  0.03102728,  0.1724733 ,  0.16111295,
         0.37140778, -0.2520627 , -0.03011405,  0.2997287 ,
        -0.4427005 , -0.46867892, -0.09456471, -1.511992  },
       { 0.2902915 , -0.36133316,  0.21438013, -0.05625159,
         0.24332215, -0.35084113,  0.21832341, -0.6646522 ,
         0.09572432, -0.49355733, -0.35069975,  0.8733559 ,
        -1.7079097 , -0.4178146 , -0.10915828, -0.07098154}},

      {{-0.8048001 , -0.2062891 ,  0.47550386,  0.09099288,
        -0.05866709,  0.31352457, -1.0644717 ,  0.05165794,
         0.3982785 ,  0.21041456,  0.03265045, -1.0723294 ,
        -0.11431021,  0.44056034,  0.25158003,  0.07753807},
       {-0.0339148 , -0.35923246,  0.5812964 ,  0.18746911,
         0.21652667,  0.42116857, -0.6917379 ,  0.17530698,
         0.49184534, -0.05954237, -0.01312589,  0.6318767 ,
        -0.60618335,  0.04284528,  0.60600334, -0.39977932},
       { 0.0667721 , -0.15506952,  0.00799576, -0.01450781,
         0.25011644, -0.24047995,  0.12929828, -0.4817001 ,
         0.06705368, -0.33059886, -0.25056297,  0.56413764,
        -1.6641778 , -0.5358856 ,  0.13831246,  0.05741487}}};
const model_type_weights conv2d_point_weights_1[16][32] = {{ 6.01492763e-01, -5.15101515e-02, -8.23553264e-01,
        1.72796279e-01, -1.05127729e-02, -3.44109945e-02,
       -4.86057959e-02, -2.21470743e-02, -5.10502160e-02,
       -1.12630196e-01,  7.08508790e-02,  4.08597559e-01,
       -1.25106266e-02, -2.93567553e-02, -2.84012318e-01,
        3.78939807e-01,  1.50802275e-02, -7.21900836e-02,
       -3.65047529e-02, -1.77461937e-01, -4.13711704e-02,
       -4.86844540e-01, -4.00937684e-02, -5.21525517e-02,
       -3.57143544e-02,  3.70165147e-02, -6.86976360e-04,
        1.05312176e-01,  2.77421236e-01, -3.06235909e-01,
       -1.33594096e-01, -1.21045776e-01},
      {-4.73286733e-02,  4.67376328e+00, -5.97492456e-01,
       -7.24846423e-01,  2.76469458e-02, -8.23333561e-02,
        1.02503642e-01,  1.50220647e-01,  4.28022981e-01,
        7.50870705e-01,  3.03304642e-01,  4.61726069e-01,
       -4.93980087e-02, -2.58736890e-02,  8.49551082e-01,
        1.05805829e-01, -1.79944873e-01,  2.46303916e-01,
        1.65248200e-01,  6.85685098e-01,  1.41381347e+00,
        4.72223898e-03, -1.13133751e-01, -1.00853354e-01,
        1.00065067e-01,  1.89184677e-02,  6.90651774e-01,
        2.27543801e-01,  5.81552207e-01,  3.68451625e-01,
       -4.57751334e-01,  1.78331360e-01},
      { 8.81103218e-01,  9.93075147e-02, -1.25881672e-01,
       -2.90542871e-01, -5.27684465e-02, -8.04356858e-02,
        6.51343539e-03, -4.61513549e-02, -4.02581841e-01,
        2.80989289e-01,  4.42458577e-02,  2.05911659e-02,
        4.38667685e-02, -1.93794053e-02, -1.99292794e-01,
        6.06327772e-01,  6.67151511e-02,  7.25284815e-02,
       -1.62357148e-02,  1.84769332e-01,  8.11360253e-04,
       -6.05373919e-01,  1.45386681e-02, -5.12013435e-02,
        1.65658981e-01, -2.54998263e-02, -1.49887716e-02,
        2.51099281e-02,  1.18017650e+00, -1.33117259e-01,
        2.97453087e-02,  4.18635570e-02},
      { 8.51559266e-02,  1.93875447e-01,  1.44020617e+00,
       -1.12602405e-01,  1.28051355e-01,  4.48717922e-02,
        7.31923506e-02, -5.28786182e-01, -4.15381789e-01,
        3.29265982e-01,  9.54897404e-01, -1.74116164e-01,
       -1.17079389e+00, -2.83553839e-01,  3.84438783e-01,
        2.64968902e-01,  2.19987512e-01, -7.96388805e-01,
       -3.36207412e-02, -2.11649649e-02,  1.92571320e-02,
        7.16211319e-01,  3.58096771e-02,  1.14461202e-02,
        4.53658044e-01,  1.18742692e+00, -7.28409663e-02,
        8.63514170e-02,  4.06319857e-01,  4.37032372e-01,
        2.82705069e-01, -2.74437398e-01},
      { 7.22758099e-02, -1.85380712e-01,  4.58305210e-01,
        4.23112288e-02,  4.88019198e-01,  4.29516941e-01,
       -3.77867185e-02, -2.02983528e-01, -1.81083441e-01,
       -1.64193481e-01,  2.04577923e-01,  2.19152629e-01,
        6.71867192e-01, -1.25211072e+00,  2.26032156e-02,
        2.10317299e-01,  1.04070000e-01, -7.94837236e-01,
       -4.60846186e-01, -1.42967924e-01,  1.38769925e-01,
        4.23884124e-01,  2.33984038e-01, -1.54331595e-01,
        1.36312678e-01, -2.47262865e-01, -3.60004716e-02,
        1.17091298e+00, -2.69122198e-02, -3.57292831e-01,
        1.25920737e+00,  5.05954444e-01},
      { 4.28853899e-01, -5.00418425e-01,  1.51245162e-01,
        3.90596569e-01,  3.10903609e-01,  4.95781362e-01,
        3.80095512e-01,  3.04969370e-01, -8.79694521e-02,
       -3.03697944e-01, -1.29624069e+00,  3.34785163e-01,
       -9.87446159e-02,  6.64483458e-02, -5.55615425e-01,
        2.77411304e-02, -3.28430206e-01,  4.82484363e-02,
        9.56620425e-02,  1.90421924e-01, -4.28712040e-01,
       -4.99255545e-02,  2.68479645e-01,  1.11089163e-01,
       -2.85240865e+00, -2.20790938e-01, -6.62265578e-04,
       -1.63759574e-01, -8.16552788e-02, -3.03611934e-01,
        1.71304584e-01, -1.17992006e-01},
      { 1.09245384e+00, -1.21968724e-01, -1.83398575e-01,
        3.78370792e-01, -3.23786512e-02,  3.21771353e-02,
       -4.90437299e-02, -3.18641029e-02,  1.15668225e+00,
       -1.02046274e-01, -9.22034010e-02,  4.42044050e-01,
        3.62879783e-02, -1.52917597e-02, -2.01576576e-01,
        8.46889555e-01,  1.00939900e-01, -3.90200019e-02,
        7.90215135e-01, -5.42455167e-02, -3.71641248e-01,
       -8.08767140e-01, -1.90403688e+00, -4.70515899e-02,
       -1.32618710e-01,  1.01638481e-01,  9.35294554e-02,
        1.16966084e-01,  3.08719706e-02, -5.76886833e-01,
        1.32956311e-01,  3.97686511e-02},
      { 2.57154107e-01,  5.25435388e-01, -1.28588572e-01,
        1.83244705e-01, -4.33159471e-01, -5.11464953e-01,
       -2.52479821e-01,  1.16672838e+00, -9.17603150e-02,
       -1.59747899e-01, -4.43101227e-01, -4.86489296e-01,
        1.04941301e-01, -1.65011764e-01, -6.01614237e-01,
        2.55506933e-01, -1.26140845e+00,  1.33729786e-01,
        7.73660168e-02, -9.48047712e-02, -4.54142690e-01,
       -3.71714830e-01,  9.90093648e-02, -1.30270690e-01,
        1.83785304e-01, -5.60359061e-02,  7.27832243e-02,
        7.94037208e-02,  9.81284752e-02,  1.55609846e-01,
        2.96548098e-01,  1.77897441e+00},
      {-4.55300771e-02, -2.64353991e-01,  3.23586375e-01,
       -1.31475972e-02,  5.26645541e-01,  5.42214096e-01,
        2.81555176e-01,  1.86304808e-01, -2.12024644e-01,
       -5.27687147e-02, -1.22123435e-01,  6.87519535e-02,
       -1.34232938e+00,  4.63588238e-01, -8.22395980e-02,
       -6.02800772e-02, -1.11263700e-01, -5.45914710e-01,
       -2.28972640e-02,  8.77410233e-01, -9.71072838e-02,
        4.62036878e-01,  1.44858718e-01, -4.95704889e-01,
       -1.04939342e+00,  2.69716591e-01, -2.20793448e-02,
       -9.14936125e-01, -1.40868559e-01, -1.24608725e-02,
        9.32563782e-01, -1.14697802e+00},
      { 1.55751258e-01,  6.01884127e-01,  2.65846103e-01,
        3.80072206e-01, -5.45918286e-01, -2.49743283e-01,
       -3.96164268e-01, -2.90274620e-01, -1.04625784e-01,
       -3.97062302e-01,  1.28121543e+00,  5.22788584e-01,
       -2.34059185e-01,  2.08054706e-01, -3.68879348e-01,
        1.27518386e-01,  2.26674214e-01, -5.61939836e-01,
       -4.18134928e-01,  1.78046256e-01, -4.15682159e-02,
        1.52915075e-01,  1.81644708e-01,  2.97897965e-01,
        1.78804886e+00, -1.89972762e-02,  3.92613607e-03,
        5.34662642e-02, -1.76160291e-01, -5.61591983e-01,
       -4.10727598e-03,  3.28010553e-03},
      {-3.03475887e-01,  4.12271380e-01,  5.50035894e-01,
       -1.82227209e-01, -2.06406012e-01, -8.00570920e-02,
       -1.35225534e-01, -1.28549203e-01,  1.83094904e-01,
        3.28782737e-01, -4.95022267e-01, -2.18615755e-01,
        9.69722688e-01, -1.44423664e-01,  2.59010226e-01,
       -2.05778569e-01,  1.11966483e-01,  7.40287364e-01,
        3.90342653e-01,  1.32502720e-01, -5.11530880e-03,
       -2.76653737e-01, -1.59709621e-02,  6.37483671e-02,
       -5.21891303e-02, -1.81188256e-01,  4.03956212e-02,
        3.32547545e-01,  2.87262976e-01,  5.43807626e-01,
       -4.92384613e-01,  3.37559164e-01},
      { 9.53857675e-02, -2.06107184e-01,  2.01040760e-01,
       -9.54639688e-02,  6.00872278e-01,  4.02700067e-01,
        2.40755007e-01,  9.07107890e-02, -2.53200997e-03,
       -6.54252395e-02, -4.87627447e-01, -1.70110106e-01,
        1.24921453e+00,  3.79317224e-01,  1.54039383e-01,
        2.67674387e-01, -1.01199321e-01, -6.62652776e-02,
       -1.35447070e-01, -1.75927126e+00,  1.76701292e-01,
       -2.10975502e-02, -1.09303668e-01, -9.03702736e-01,
       -1.26740265e+00, -2.89955527e-01,  1.39678299e-01,
       -6.21733844e-01,  1.41409636e-01,  5.68830967e-03,
        1.29625869e+00,  5.05828857e-01},
      {-1.40010849e-01,  1.35478422e-01,  1.84114084e-01,
        7.52392709e-01, -1.14448205e-01, -1.46159768e-01,
        3.08596771e-02,  1.38615230e-02, -9.48212445e-02,
        5.11026150e-03, -3.59854072e-01, -2.20758021e-01,
       -1.73558354e-01,  2.06925407e-01,  1.86995611e-01,
       -3.02700967e-01, -3.25460851e-01,  4.39887226e-01,
        1.45879924e-01, -3.89415860e-01,  7.32743219e-02,
       -1.56638488e-01,  4.08764854e-02,  2.72185349e+00,
       -8.59652311e-02, -9.91567783e-03, -2.47855949e+00,
       -9.33660753e-03,  4.75991191e-03,  1.09147973e-01,
        8.96588340e-02,  3.86815727e-01},
      {-4.30694938e-01, -2.40983158e-01,  4.89735186e-01,
       -1.58497736e-01, -5.11313438e-01, -7.55973011e-02,
        1.03702925e-01, -2.38707438e-01,  9.89707559e-02,
        2.55097359e-01, -7.53788128e-02, -3.53002399e-02,
        3.90234470e-01, -2.08620563e-01,  5.50126076e-01,
       -6.90437257e-01,  7.90404305e-02,  9.18261930e-02,
       -1.83663324e-01,  6.62266791e-01, -1.86395869e-01,
        1.46912128e-01,  4.43085939e-01, -2.58103162e-02,
       -3.95252556e-02, -3.98300402e-02, -1.47328228e-01,
        5.40264696e-02, -3.65468085e-01,  1.19376898e-01,
       -2.76587367e-01,  3.71437192e-01},
      {-5.87840199e-01, -3.98394838e-02,  1.77003518e-01,
       -3.11619509e-02, -1.00984219e-02,  4.15968709e-02,
       -6.55165538e-02,  1.53279083e-03,  2.43064135e-01,
       -2.15212658e-01, -1.27052255e-02,  1.41703576e-01,
       -1.87437646e-02,  2.25979649e-02,  2.11146027e-01,
       -2.96651512e-01, -1.37031795e-02, -1.20248809e-01,
       -2.63169575e-02, -7.21097514e-02,  1.54935746e-02,
        3.06345671e-01,  4.29383889e-02, -1.83301400e-02,
       -4.57093716e-02,  9.07886028e-03, -1.38056930e-02,
        2.00734530e-02, -3.27940553e-01, -3.49909030e-02,
       -1.01056620e-01,  4.75195348e-02},
      { 2.29489610e-01,  3.03033710e-01,  3.27070624e-01,
       -1.08151388e+00,  2.08351746e-01,  1.99866027e-01,
        1.07397206e-01,  7.39121661e-02, -4.32410918e-04,
        8.14599216e-01, -1.12041146e-01, -3.79775017e-01,
       -5.63612059e-02,  2.13654563e-01,  4.32271540e-01,
       -5.02702773e-01, -1.75757676e-01,  7.82973245e-02,
       -7.55631477e-02, -2.19751313e-01, -1.56988132e+00,
        1.64262414e-01,  2.74187565e-01,  3.08298320e-01,
        3.10656369e-01,  1.87437562e-03,  2.28002340e-01,
        1.59770660e-02,  5.08828104e-01,  8.24461102e-01,
        5.83041251e-01,  5.17598987e-01}};
const model_type_weights conv2d_depthwise_bias_1[32] = {0.09227591,  0.3616635 , -0.23693557, -0.08672785, -0.3380103 ,
	       -0.21197498, -0.23422173,  0.15252973,  0.5015509 ,  0.30911413,
	       -0.05931764,  0.06989877, -0.03821483,  0.24250056,  0.10975615,
	       -0.3384721 , -0.01514924,  0.70095146,  0.20535292,  0.08800259,
	       -0.15702452,  0.08586477, -0.09903445,  0.38648912,  0.12297161,
	        0.11663479,  0.06726564,  0.1425552 , -0.06089481,  0.2161706 ,
	       -0.25235814,  0.32653132};

const model_type_weights conv2d_depth_weights_2[3][3][32] = {{{ 2.17646621e-02,  8.35524052e-02, -2.69072354e-02,
        9.97210946e-03, -6.24934509e-02,  6.13584340e-01,
        1.66550651e-02,  5.93281910e-02,  1.08592235e-01,
       -1.11071989e-01,  7.34484643e-02,  2.62815561e-02,
       -1.53288707e-01, -6.48503541e-04,  9.04254243e-02,
        2.34448034e-02, -1.08109284e-02, -2.31196910e-01,
        7.11551309e-02,  2.00263679e-01, -5.03414823e-03,
       -6.13885783e-02,  2.58380338e-03,  6.83450932e-03,
       -2.08478689e-01,  4.12636213e-02,  2.97445264e-02,
        1.17871137e-02, -7.89454207e-03, -9.83146206e-02,
        1.71051584e-02, -3.74444313e-02},
      {-1.40134066e-01,  1.36424422e-01, -3.09149958e-02,
       -1.16473045e-02, -1.59949273e-01,  2.25337043e-01,
        6.27068132e-02,  6.52068630e-02, -1.42882047e-02,
       -2.17017174e-01, -2.08480835e-01,  2.93676648e-02,
       -9.68299508e-02, -1.58223495e-01, -8.32033753e-02,
        1.16917312e-01,  1.70279294e-02, -2.30013385e-01,
       -2.55277958e-02,  7.39500597e-02, -3.93707491e-02,
        9.18723084e-03,  2.34057736e-02,  4.71677892e-02,
        1.12621151e-01, -3.76020297e-02, -2.25779749e-02,
       -1.28555372e-01, -2.24241950e-02,  7.53569463e-03,
       -1.66711316e-01, -1.73993573e-01},
      {-1.28370136e-01,  1.26880050e-01, -6.24322407e-02,
        1.38295069e-02, -6.23625457e-01, -3.36628675e-01,
        7.57977441e-02, -3.57781760e-02,  1.88953087e-01,
       -1.07630253e-01, -1.31166905e-01,  1.71780903e-02,
       -6.54836139e-03,  7.49639720e-02,  2.00187638e-02,
        2.32787162e-01,  3.52693014e-02,  2.80250549e-01,
       -6.00377098e-02,  2.36922279e-02,  3.46405357e-02,
       -8.07877257e-03, -4.78468947e-02,  2.45190449e-02,
       -1.42435551e-01, -5.07163145e-02,  2.28361189e-02,
        4.49326560e-02,  1.18782977e-02,  7.71338195e-02,
       -2.71175623e-01, -3.04707736e-02}},

     {{ 5.11203520e-03, -7.91732743e-02, -4.14793417e-02,
       -2.48430669e-03, -9.99006443e-03,  2.20772758e-01,
        3.98239642e-02,  1.46344304e-01,  8.85053501e-02,
       -1.54410318e-01, -1.07106984e-01,  8.16458371e-03,
       -1.15648448e-01, -1.72143862e-01,  1.57717898e-01,
        2.93308143e-02, -1.57086909e-01, -6.66481778e-02,
        5.65822832e-02,  2.53383964e-02, -3.87513377e-02,
        3.17908227e-02,  1.91375706e-02,  5.46416268e-02,
       -2.63622761e-01, -3.29770967e-02,  2.07778718e-03,
       -1.36898205e-01,  4.52671163e-02,  1.59049947e-02,
        3.48410495e-02, -2.28187010e-01},
      {-9.22747850e-02, -1.08583212e+00, -3.28818053e-01,
        4.64596719e-01, -1.50185093e-01,  6.25171438e-02,
        3.48326594e-01, -8.75430644e-01,  3.74338478e-01,
       -8.05976629e-01,  8.77990723e-01,  3.59377921e-01,
       -1.08242944e-01, -2.41077766e-01,  8.37010622e-01,
        3.57714504e-01, -8.49603713e-01,  6.35003865e-01,
        3.17337424e-01, -8.11386257e-02,  1.46673366e-01,
       -1.47909179e-01, -9.40492004e-02,  6.12453341e-01,
        1.40165913e+00, -1.54383942e-01, -9.74666834e-01,
       -3.22520703e-01, -3.62135559e-01, -5.10362267e-01,
        9.53420460e-01, -3.55963439e-01},
      {-5.88080883e-01,  2.42193356e-01, -2.04067767e-01,
        3.53303373e-01, -2.00168639e-01, -3.39082181e-01,
        2.53068417e-01, -2.12715343e-02, -8.72175336e-01,
        5.82290769e-01,  1.72206491e-01, -7.57697463e-01,
       -4.50077653e-02, -1.30440742e-01, -5.45139201e-02,
        6.50232375e-01,  2.67659798e-02,  5.14758080e-02,
        2.97414005e-01,  5.76644428e-02,  6.92106187e-01,
       -6.21887743e-01, -7.58997381e-01,  7.76809976e-02,
        2.65825868e-01, -3.26302499e-01, -5.30129001e-02,
       -1.23846024e-01, -2.64662117e-01,  5.16750872e-01,
       -2.58459568e-01, -1.97840601e-01}},

     {{ 2.56976928e-03,  8.21342170e-02, -1.61531836e-01,
        2.59142406e-02,  1.53003111e-01,  5.61281256e-02,
        9.91973579e-02,  1.56927425e-02,  5.47433272e-02,
       -2.45382681e-01, -7.23501481e-03,  3.03103868e-02,
       -1.42594025e-01,  3.05443667e-02,  4.12437022e-02,
        4.67586368e-02, -2.07642876e-02,  1.95920587e-01,
        4.12517339e-02,  3.71643007e-01, -2.55952384e-02,
       -2.20837463e-02,  2.15917472e-02,  2.25376934e-02,
       -4.31021839e-01,  4.50825393e-02,  3.93786542e-02,
        2.24289969e-02, -1.55385667e-02, -5.77987023e-02,
       -1.20950885e-01, -7.05920458e-02},
      { 1.12590387e-01,  2.46482883e-02, -2.25276604e-01,
        2.11297661e-01,  2.33567789e-01,  2.68073361e-02,
        1.27911538e-01,  8.10419098e-02, -4.19726409e-02,
        2.37554371e-01, -2.18980759e-01,  1.95397791e-02,
       -1.53824031e-01, -1.62148684e-01,  2.48097420e-01,
        4.70915511e-02,  6.43972158e-02,  1.40316188e-01,
       -4.80095332e-04, -1.94556117e-02,  7.35149682e-02,
        4.70535696e-01, -8.33553150e-02,  9.30767972e-03,
        1.49816200e-01, -6.25271946e-02, -5.65984808e-02,
       -1.78179577e-01, -1.35968281e-02, -4.58647460e-01,
       -1.94930777e-01, -1.85562342e-01},
      { 1.77937254e-01,  1.42629996e-01, -1.08353749e-01,
        1.41848758e-01,  8.17365468e-01, -5.35579443e-01,
        1.16139822e-01, -2.55559329e-02, -1.17887206e-01,
        2.81000733e-01, -2.94038393e-02,  3.00672241e-02,
       -1.06545798e-01,  5.20781539e-02,  2.68283546e-01,
        3.50456722e-02,  4.41976637e-02, -7.56960988e-01,
        5.62282763e-02,  1.24066316e-01,  2.87305862e-01,
        5.84880114e-01,  9.00173839e-03,  6.39141500e-02,
       -1.90959230e-01, -3.72171099e-03,  1.06534092e-02,
        2.38236003e-02, -8.76997337e-02,  1.59035817e-01,
       -5.96146006e-03, -6.18799850e-02}}};
const model_type_weights conv2d_point_weights_2[32][48] = {{ 1.50882661e-01, -6.60004243e-02, -6.47820175e-01,
        1.27918303e-01,  2.32239455e-01,  1.58550963e-02,
        8.85811508e-01, -1.30963042e-01,  1.29672170e-01,
        1.35589972e-01, -5.16969822e-02,  1.42896613e-02,
        1.44953758e-01, -4.03811663e-01,  4.07932699e-01,
        6.89447392e-03,  2.51165390e-01,  1.59347849e-03,
        6.34916276e-02, -5.45250513e-02, -2.56962925e-01,
        8.73468369e-02,  1.87109962e-01,  3.56206819e-02,
       -3.48202474e-02,  6.68866396e-01, -7.36707374e-02,
        2.16321856e-01,  1.11064397e-01,  8.29409584e-02,
       -3.65113914e-02, -7.78273821e-01,  5.78602813e-02,
        2.47989923e-01, -9.80454776e-03, -8.39279294e-01,
        2.28055552e-01, -9.61324200e-02, -8.44580028e-03,
       -7.36524165e-02,  2.75573492e-01, -9.60536078e-02,
        3.71951431e-01,  1.26098663e-01, -6.32378280e-01,
       -1.92900524e-01, -2.52499878e-01, -2.72401404e-02},
      {-1.15773296e+00,  1.15066278e+00,  6.80568293e-02,
        1.39210701e-01,  1.13971919e-01,  6.22995235e-02,
        2.68422931e-01,  3.50280464e-01, -4.65334117e-01,
        3.75803292e-01,  4.46366310e-01, -3.33500177e-01,
       -1.34173620e+00,  1.10120095e-01, -1.40134680e+00,
       -8.85459688e-03,  1.72685117e-01,  1.70015574e+00,
        1.35797992e-01,  9.88867804e-02, -2.24280491e-01,
        1.00690413e+00, -8.45451295e-01, -5.83905637e-01,
        3.57018769e-01,  3.17344993e-01,  8.13572779e-02,
       -1.14356089e+00, -5.13984382e-01, -8.89644027e-01,
       -1.85381681e-01,  1.32345691e-01,  1.10882111e-02,
        1.80507630e-01,  3.49183343e-02, -8.70649666e-02,
        1.55482799e-01,  2.64616430e-01,  6.96106926e-02,
        4.77050751e-01,  1.61475942e-01, -4.57729876e-01,
       -2.89444447e-01,  6.48941919e-02,  5.12189150e-01,
       -9.08703133e-02,  1.39445990e-01, -4.94454801e-02},
      { 3.62944096e-01,  3.57322651e-03,  1.05656101e-04,
        6.15765154e-01, -5.25760725e-02,  5.37381619e-02,
       -2.70075768e-01,  1.09746471e-01,  4.13941562e-01,
        3.75913352e-01,  2.62077004e-01,  2.44980082e-01,
        1.73767895e-01, -4.54485789e-02,  1.05624437e+00,
        1.13644823e-01,  5.36687493e-01,  9.17009041e-02,
        1.31936491e-01, -4.54079919e-02,  2.75287271e-01,
       -3.93233374e-02,  1.79803029e-01,  1.85359553e-01,
       -1.34194613e-01, -1.67028651e-01, -1.34217173e-01,
        8.06564629e-01, -2.47610286e-01, -3.49392861e-01,
        3.62057626e-01,  6.00950420e-01,  8.28828514e-02,
        4.23614502e+00,  5.10844402e-02,  3.96528810e-01,
        2.20988557e-01,  9.14041549e-02, -1.31465584e-01,
       -4.85731810e-02, -3.15257072e-01,  3.71887714e-01,
       -6.00599721e-02, -2.03330852e-02, -2.29849502e-01,
        2.88110256e-01,  1.27141333e+00,  7.11158738e-02},
      {-2.19064593e-01, -5.27131200e-01,  1.82804599e-01,
        9.56240073e-02,  2.66953915e-01, -1.86611749e-02,
       -1.68087766e-01, -1.58595049e+00,  1.12900771e-01,
        7.75708258e-01,  6.82017744e-01, -4.40266401e-01,
        5.63778207e-02, -3.82565521e-02, -6.04772903e-02,
       -2.59381104e-02,  2.38887146e-01,  4.07504812e-02,
        1.19648047e-01, -2.55042803e-03,  1.83959335e-01,
        3.55196781e-02, -8.02820772e-02,  1.25752509e-01,
        1.01534374e-01, -1.10170700e-01,  1.91114713e-02,
        1.51950613e-01, -3.00839394e-01, -2.83961475e-01,
        7.11211413e-02, -7.63067305e-02, -6.46285638e-02,
       -2.91240782e-01, -1.04859211e-02, -9.80204786e-05,
       -1.47224355e+00, -5.00856526e-02, -8.63633454e-02,
        2.20129386e-01, -1.26899409e+00,  1.66145012e-01,
       -1.25516936e-01,  4.59855407e-01, -3.43392670e-01,
        1.31523445e-01,  2.56520838e-01, -1.77869484e-01},
      { 3.08563933e-03, -1.14732049e-01,  2.02235878e-02,
        3.81595232e-02,  1.38075933e-01, -1.23284079e-01,
        1.81568146e-01,  2.31532548e-02,  3.24962065e-02,
       -3.63764502e-02,  1.25137821e-01, -5.07335737e-02,
       -3.59011488e-03,  1.21448839e+00,  1.52685404e-01,
        2.81340331e-02,  1.01933099e-01,  2.71781813e-02,
        1.79920401e-02, -2.86667179e-02, -8.20684507e-02,
        1.27644287e-02,  1.73773803e-02,  2.72867898e-03,
       -1.25097439e-01,  1.78070422e-02, -8.21286663e-02,
       -6.36338145e-02,  2.19318140e-02,  7.51165226e-02,
       -6.32017553e-02,  2.34320343e-01, -7.47309951e-03,
       -2.50547707e-01,  6.01297282e-02, -7.27356300e-02,
       -3.32488380e-02, -1.38025563e-02, -3.76580586e-03,
        6.21738359e-02,  6.88765943e-02,  3.49046402e-02,
       -7.70796418e-01,  5.28641008e-02,  1.94622770e-01,
        3.68860215e-02,  5.91494031e-02, -2.26532649e-02},
      {-1.53821200e-01,  4.00532275e-01, -5.02560753e-04,
       -9.45316777e-02, -1.14377096e-01,  1.27431586e-01,
        5.76169677e-02,  1.18529506e-01, -6.48959354e-02,
       -1.03443705e-01, -6.80599734e-02, -2.80127078e-01,
       -3.05413324e-02, -5.88342547e-01,  1.17511570e-01,
        2.72561070e-02,  2.13799208e-01, -2.97645070e-02,
        9.74403992e-02,  1.99710368e-03,  3.51272337e-02,
       -1.32455234e-03, -8.99696350e-03, -2.73200916e-03,
       -1.30415201e-01,  9.29461643e-02, -2.57760305e-02,
       -1.25413164e-01,  1.23774543e-01, -7.57690072e-02,
       -9.52969790e-02,  2.65299559e-01, -2.57680938e-02,
        1.57573551e-01,  1.19813561e-01,  1.81853876e-01,
        1.54756710e-01, -1.40890598e-01,  4.17856015e-02,
       -2.30630457e-01,  1.50196135e-01,  3.63084003e-02,
       -3.39604437e-01,  5.35364091e-01,  9.23518464e-02,
       -1.87890586e-02,  5.22782095e-02,  1.16268265e+00},
      { 9.43833515e-02, -2.01430097e-01, -2.74122268e-01,
       -1.11203812e-01, -1.13701157e-01, -1.69917867e-02,
        1.37742743e-01,  9.51391309e-02, -3.08112532e-01,
       -3.75165381e-02, -1.45750731e-01, -1.95679665e-02,
       -3.53141457e-01,  7.01559186e-02, -3.72372687e-01,
        7.51914859e-01, -1.69542179e-01,  6.55415177e-01,
        2.49680772e-01,  4.41993102e-02, -9.66655910e-02,
       -2.54463464e-01, -5.86552173e-02, -2.86834627e-01,
       -7.27541074e-02,  1.03464775e-01,  2.21710905e-01,
        1.30556300e-01, -1.41853511e-01, -6.80132806e-01,
        2.75693983e-01, -2.15751246e-01, -7.77023798e-03,
       -1.37204617e-01,  6.49226189e-01, -2.16196135e-01,
        2.09659562e-02,  8.22806507e-02,  4.81621683e-01,
       -5.87659121e-01,  3.64971638e-01, -5.70776761e-01,
        2.88865119e-01,  1.11368701e-01,  2.08967432e-01,
       -2.78491110e-01, -6.48747802e-01,  1.03344508e-01},
      { 5.23285449e-01,  4.67866063e-01,  4.36837196e-01,
       -1.05664946e-01,  1.06811607e+00, -7.74289072e-02,
       -1.76273480e-01,  5.91838285e-02, -1.74806818e-01,
        2.46158063e-01, -1.94203496e+00,  7.86492169e-01,
       -7.68498033e-02,  5.38402088e-02, -6.22916892e-02,
       -1.13777198e-01, -3.44830871e-01,  4.96213138e-02,
       -4.09707159e-01,  6.57057241e-02,  6.73911563e-05,
        3.47417414e-01,  1.89707041e-01, -8.51513520e-02,
       -3.51847932e-02,  1.71537921e-01,  1.98370591e-01,
        1.05167039e-01,  4.10817683e-01,  5.39441146e-02,
        2.93713242e-01, -4.14379925e-01, -1.67564154e+00,
        2.25878432e-01,  4.65455987e-02, -4.10935190e-03,
        4.21414018e-01,  7.41616905e-01,  1.12858731e-02,
        1.05805099e-01,  6.92376375e-01, -2.47971892e-01,
        1.65781707e-01, -3.10536623e-01,  4.26177587e-03,
       -3.48030552e-02,  3.80751640e-01,  9.11280587e-02},
      { 3.90713125e-01, -1.65653720e-01,  3.46663862e-01,
        4.10904735e-01, -2.73110032e-01, -1.05775380e+00,
        5.30004859e-01,  1.74905136e-02, -6.17601573e-02,
       -7.11055547e-02,  1.59063175e-01, -2.82790631e-01,
        5.25717027e-02,  1.56750277e-01,  1.27035543e-01,
       -2.73800083e-02,  3.70860286e-02,  8.37856457e-02,
        2.51510680e-01,  3.95608274e-03, -3.26160282e-01,
        7.61956498e-02,  4.82058413e-02,  2.68009696e-02,
       -1.04810856e-01,  3.25231291e-02, -5.90995997e-02,
        3.22841741e-02, -1.34175837e-01,  1.40225947e-01,
        4.04418647e-01,  5.12055993e-01, -9.47061693e-04,
        9.65238139e-02, -1.26527334e-02, -2.06707008e-02,
        1.63492054e-01,  7.96976745e-01,  3.14892903e-02,
       -4.20097150e-02,  2.71162629e-01, -3.57783772e-03,
        1.02881134e-01, -7.61248618e-02,  2.95146227e-01,
       -9.04675364e-01, -5.27202189e-01,  2.58844554e-01},
      { 4.66627836e-01, -7.29550049e-02,  3.10718507e-01,
       -5.88501841e-02, -1.83065176e-01, -9.37373221e-01,
       -3.56039017e-01, -1.14426471e-01,  4.12948914e-02,
       -5.33411056e-02, -1.57638967e-01,  3.68619189e-02,
       -1.55839950e-01, -2.24053897e-02,  6.82007253e-01,
       -1.12191960e-02, -1.09054005e+00,  5.45029938e-02,
       -1.88549131e-01,  1.87171623e-02,  2.53806561e-01,
        1.92757428e-01,  7.23186806e-02, -6.85365126e-02,
        1.67894527e-01,  4.03819643e-02,  3.09629049e-02,
        4.62418646e-01,  6.88961223e-02,  7.81943440e-01,
       -3.13684970e-01, -9.00455862e-02,  5.31852096e-02,
       -3.12066376e-01, -1.52047398e-02,  7.75228143e-02,
        4.34865594e-01,  1.39841187e+00,  1.21084619e-02,
        4.69851643e-01,  1.61915421e-01,  4.80231881e-01,
        2.25112602e-01,  4.18739133e-02,  1.77242145e-01,
        6.87777624e-02,  8.36115927e-02, -1.88301995e-01},
      { 3.43864225e-02, -4.48737964e-02, -3.01263899e-01,
       -5.30140758e-01,  2.71881431e-01, -2.24944532e-01,
       -2.50117052e-02, -4.00348127e-01, -1.29154944e+00,
        1.14946172e-01,  1.05049916e-01,  3.29775780e-01,
        7.55162835e-01, -2.35844520e-03, -8.49309843e-03,
       -2.73097809e-02, -1.05746746e-01,  2.70783782e-01,
        4.41745788e-01,  3.38836849e-01,  5.51587999e-01,
        8.72905314e-01, -3.47869582e-02,  1.16941941e+00,
       -1.46605492e-01,  1.20878331e-01,  3.86226505e-01,
       -1.01063263e+00, -3.36230814e-01,  1.37325680e+00,
        4.61328059e-01, -4.53418076e-01,  1.19633079e-01,
       -1.81870416e-01, -1.33268163e-01, -7.13636696e-01,
        1.39411792e-01,  1.34250864e-01, -8.66388530e-02,
       -2.11395055e-01,  1.48874372e-01, -1.03541970e-01,
       -1.43734261e-01,  5.56192063e-02, -7.65425861e-01,
       -1.26662970e+00,  3.57639074e-01, -3.30799669e-02},
      { 1.62573457e-01,  4.46475297e-01, -1.53735355e-01,
       -4.05658603e-01, -1.47688389e-01, -3.45865577e-01,
       -3.97928119e-01, -8.43028724e-03, -2.72552371e-01,
        1.96116209e-01, -2.10416794e-01,  2.07658052e-01,
       -1.11982055e-01,  7.26745129e-02,  3.22024345e-01,
        1.15589954e-01, -6.61546946e-01, -9.87439044e-03,
       -8.46476376e-01,  2.16250046e-04,  1.26237243e-01,
        4.53137532e-02,  2.14992359e-01,  8.21621791e-02,
        1.93627045e-01,  1.62128936e-02,  1.78520847e-02,
        3.30318600e-01, -1.86393455e-01,  3.61069679e-01,
        2.47111283e-02, -7.53362954e-01,  1.36133587e+00,
        2.27068201e-01,  1.07153598e-02,  1.30029708e-01,
        4.45429564e-01,  7.13984728e-01, -8.35099742e-02,
       -2.86693126e-01,  2.16510877e-01,  1.33809805e-01,
        1.22576684e-01, -1.43304884e-01, -4.67111468e-01,
       -1.01040438e-01, -1.90860629e-02, -3.65585268e-01},
      { 1.20864701e+00,  5.77624142e-01, -1.09429598e-01,
        2.80538172e-01, -2.78223664e-01, -1.97946385e-01,
        2.89076507e-01, -3.75651270e-01, -1.04766794e-01,
        1.24365557e-02,  7.24963129e-01, -4.82630134e-01,
       -1.55757651e-01, -2.98147023e-01,  6.19554460e-01,
       -1.09751612e-01, -1.23555902e-02,  5.26261469e-03,
       -1.03258707e-01, -1.12858675e-01,  2.07897872e-01,
        3.24518174e-01, -2.36323625e-02, -4.66203280e-02,
        1.75795823e-01, -9.62581392e-03, -1.45343110e-01,
       -2.67763942e-01, -2.25729287e-01, -2.87839264e-01,
        1.22439973e-01, -3.68426032e-02,  1.22971646e-01,
       -5.61659411e-02, -2.34586865e-01,  8.82577151e-02,
        6.66099548e-01,  2.58943886e-01,  3.40343833e-01,
        3.84229511e-01, -2.27760002e-01,  3.13708037e-01,
       -1.32522404e-01,  9.43707488e-03,  2.65008677e-03,
        3.46751273e-01,  2.62722790e-01, -5.26926458e-01},
      { 5.11476707e+00,  4.41600472e-01, -2.01793790e-01,
        1.94069296e-01, -1.52627677e-01,  9.91226919e-03,
       -1.65715963e-01,  3.01173031e-01, -2.13732079e-01,
       -4.02274057e-02,  2.99122214e-01, -4.43457425e-01,
       -6.40172601e-01, -1.10374011e-01,  8.17411602e-01,
       -1.01661526e-01,  3.45675051e-02,  2.75451429e-02,
       -3.90982889e-02, -1.02343845e+00, -1.10078692e-01,
        1.40464991e-01, -4.40842621e-02, -1.89317599e-01,
        2.84902542e-03,  2.02817023e-01, -1.08999021e-01,
       -3.82774621e-01, -3.88404310e-01, -1.01640677e+00,
       -3.35206985e-01,  5.52081615e-02,  1.84992567e-01,
        2.54570454e-01, -1.03313535e-01,  2.15346124e-02,
        1.96526021e-01, -1.82906404e-01,  8.81846786e-01,
        2.36447349e-01,  3.23385596e-01,  1.55692026e-01,
       -8.10212940e-02,  8.48919749e-02,  2.00816855e-01,
       -4.59073344e-04, -1.61166936e-01, -1.33252308e-01},
      {-1.18001290e-01, -4.05940533e-01,  7.64739037e-01,
        4.55362946e-01,  8.89357030e-01, -1.51586503e-01,
       -5.63968241e-01, -1.30142128e+00,  3.45645934e-01,
        7.34893024e-01,  1.64694443e-01,  7.57825822e-02,
        2.63662785e-01, -1.42223686e-01, -1.69136971e-01,
       -9.30634513e-02,  2.07081065e-01, -1.76301956e-01,
        4.66843367e-01, -8.54079891e-03,  5.35901546e-01,
        2.37902477e-01, -2.25180626e-01,  5.55384196e-02,
       -2.31485456e-01,  9.37641487e-02,  2.96001136e-03,
        7.09163547e-02, -3.07812452e-01, -5.71442604e-01,
        2.14470327e-01,  6.52871847e-01, -7.77381659e-02,
       -1.41325474e-01, -7.32884705e-02,  6.26746416e-01,
       -1.17821775e-01,  2.02807009e-01, -1.30676493e-01,
        1.34996653e-01, -9.70190942e-01,  2.30683967e-01,
       -1.28191233e-01, -1.98898867e-01, -9.55767274e-01,
        3.67407054e-01,  5.87895215e-01,  6.39809109e-03},
      { 1.10063635e-01, -1.73436016e-01, -3.14274073e-01,
       -2.04084545e-01,  2.56567243e-02, -2.15968460e-01,
        7.44595945e-01, -8.53968710e-02, -5.68031482e-02,
        3.67987007e-02,  6.34763241e-02, -1.14861242e-01,
        1.99599415e-02, -5.10005355e-01, -9.66101706e-01,
       -7.74416327e-02, -6.52427733e-01, -4.82624434e-02,
       -2.48128027e-02,  3.22897881e-02, -1.44720972e-01,
        1.14617944e-01,  1.56444274e-02, -1.89649999e-01,
        1.02935962e-01, -1.35663664e-02,  5.81587553e-02,
       -2.57564425e-01,  5.06884120e-02,  1.43971384e-01,
       -1.06495798e-01, -7.85298228e-01, -3.62066738e-02,
       -2.96958137e+00, -3.77173871e-02, -1.09439147e+00,
        2.24441245e-01, -2.12389186e-01, -9.23283491e-03,
        3.72693017e-02,  3.90332371e-01, -3.99996817e-01,
        1.71341613e-01, -1.30731404e-01, -2.95941472e-01,
       -5.20130575e-01, -5.11457264e-01, -1.82701439e-01},
      { 4.61666733e-01, -6.39293075e-01, -2.41958797e-02,
        1.90526664e-01, -6.97324872e-01, -1.48521334e-01,
        2.90981621e-01, -3.34495381e-02,  2.16347560e-01,
        6.03557408e-01, -5.79461195e-02, -7.22825646e-01,
        2.56264299e-01,  1.15545735e-01,  8.56524587e-01,
        1.11547247e-01, -6.85788738e-03, -9.26232338e-02,
       -6.59949899e-01,  3.43549810e-02,  3.30006689e-01,
        1.23168230e-01,  3.36357802e-01,  3.20155323e-02,
       -3.96822780e-01,  2.34478280e-01,  5.26412204e-02,
        5.77251092e-02,  7.51136422e-01, -1.37823254e-01,
       -5.22953331e-01, -5.68508580e-02, -3.43396395e-01,
        4.60421890e-02,  3.73780951e-02,  2.12389678e-01,
        6.04523242e-01,  5.39330959e-01,  1.22934738e-02,
        9.73938853e-02,  5.16093969e-01,  5.73928475e-01,
        5.63031659e-02,  1.07805955e+00,  3.85357141e-01,
        7.88223624e-01,  7.56918117e-02,  1.11313708e-01},
      { 2.05838770e-01, -2.72369891e-01, -3.39807600e-01,
        1.87915102e-01, -1.08316369e-01,  1.35504878e+00,
       -5.19115031e-02, -2.30438516e-01,  3.39852542e-01,
       -3.97917092e-01,  2.05891758e-01,  5.33003509e-02,
       -6.60423934e-03,  1.45435303e-01,  8.26700807e-01,
        3.57768424e-02,  2.04847723e-01, -1.17432149e-02,
       -1.47616759e-01, -2.89122239e-02,  3.24581534e-01,
        8.01738817e-03,  4.09119129e-02, -2.10197689e-03,
        3.66420709e-02,  2.61866730e-02,  1.00210030e-02,
       -2.30842587e-02, -2.34339878e-01,  7.48077258e-02,
        2.07123846e-01, -4.83677566e-01,  1.90765038e-02,
       -6.16722584e-01, -2.15638876e-02,  7.44564384e-02,
       -2.76798028e-02, -1.44693923e+00,  1.25497386e-01,
        6.90815330e-01, -2.32824400e-01,  9.07859504e-02,
       -2.75953319e-02,  1.33677974e-01, -2.54958458e-02,
        1.17533185e-01,  5.04166186e-01,  8.65236819e-02},
      {-4.28247638e-02,  3.25914949e-01,  8.11023712e-01,
       -9.40440297e-02,  8.99992824e-01,  1.03987940e-01,
       -4.36773926e-01,  1.01277210e-01,  1.82567731e-01,
       -9.09346417e-02,  1.77117079e-01, -3.53765905e-01,
       -5.31852841e-01, -2.58862019e-01,  6.22807026e-01,
        3.95403951e-01, -2.12743029e-01,  4.27052438e-01,
       -2.97970057e-01, -3.41337264e-01, -1.58238530e-01,
       -1.64123213e+00, -2.20047697e-01,  7.03896224e-01,
        3.57183397e-01, -3.51586610e-01, -6.57956958e-01,
        3.66220951e-01,  3.33246261e-01, -1.30919993e+00,
       -9.03787792e-01, -2.02501100e-02,  8.76911134e-02,
        1.65724561e-01, -2.26077616e-01,  2.73897648e-01,
       -2.50585616e-01, -1.83349743e-01,  3.32612693e-01,
        3.66135985e-01, -4.71682400e-02, -9.87277091e-01,
        2.78630406e-01, -4.17887330e-01,  1.35258824e-01,
        1.55827831e-02, -1.03873089e-01, -1.83899149e-01},
      { 2.96407998e-01, -4.22298789e-01, -4.27024513e-02,
        2.36410856e-01, -7.62126222e-02,  4.11491022e-02,
       -9.67370495e-02, -2.52673756e-02,  9.17734429e-02,
       -5.03284596e-02, -2.37328745e-02,  3.93876374e-01,
        5.75387701e-02,  3.55046302e-01,  2.88008690e-01,
        4.33902862e-03,  2.21385822e-01,  6.08814806e-02,
       -8.27766657e-02,  2.44213454e-02, -4.93229106e-02,
        1.89123064e-01,  4.44604717e-02,  4.16587293e-02,
        5.23742437e-02, -2.80425966e-01,  7.73597434e-02,
        2.73338079e-01,  1.79672107e-01, -1.42328031e-02,
        1.87623245e-03,  1.76043943e-01, -2.45447457e-02,
        4.30186361e-01,  6.34027779e-01,  1.09410733e-01,
        4.77127060e-02,  1.32536322e-01, -2.04330742e-01,
        2.53165185e-01,  1.84980452e-01,  2.10212782e-01,
       -3.09666485e-01,  3.52510303e-01, -3.20915990e-02,
        2.56964892e-01, -1.07354984e-01,  9.60763454e-01},
      { 3.30327094e-01, -5.49393520e-02, -8.80911648e-02,
       -1.64649916e+00, -4.89467792e-02, -3.95700485e-01,
       -1.67355075e-01, -8.92888308e-01, -5.51892936e-01,
       -1.43427515e+00, -1.44461706e-01, -4.06141520e-01,
       -3.35760474e-01, -1.81919903e-01, -5.39435625e-01,
       -1.26407206e-01, -8.55667472e-01,  1.09642162e-03,
       -3.50851268e-01,  1.43446282e-01,  6.34221882e-02,
       -7.43439496e-02, -4.37230855e-01, -1.68916851e-01,
        4.23447043e-01,  2.05843970e-01,  2.79454559e-01,
        2.35184506e-02, -1.63823232e-01, -4.37956154e-01,
       -4.77494579e-03, -5.96218407e-01,  4.19357456e-02,
       -3.11374545e-01,  3.36756706e-02, -9.47597086e-01,
        3.30635667e-01,  1.88024685e-01,  2.37452332e-03,
       -7.89127469e-01,  2.22454578e-01,  2.02946998e-02,
       -2.99325548e-02, -4.51354116e-01,  9.06390697e-02,
       -8.52596283e-01, -4.29270655e-01, -1.10903226e-01},
      {-2.20957041e-01, -1.13243321e-02,  2.36089751e-01,
       -8.30144733e-02, -3.08884323e-01,  5.67269564e-01,
       -7.70026028e-01,  2.96583742e-01,  4.35451232e-02,
        3.59562933e-02, -1.24008447e-01,  4.53089699e-02,
        3.89332557e-03, -1.66003004e-01, -5.88575125e-01,
       -3.28001715e-02, -8.16863850e-02,  1.21217472e-02,
       -4.22813557e-02,  3.27566862e-02, -5.17150819e-01,
       -5.86554268e-03, -1.41207829e-01, -5.02307341e-02,
        7.32861236e-02,  1.21361256e+00,  4.44217287e-02,
       -4.69302118e-01,  7.85834119e-02, -1.94687322e-01,
       -5.28437905e-02,  1.69196889e-01,  2.47556163e-05,
       -3.49680334e-02, -1.81677118e-02,  7.05190301e-01,
       -2.64288813e-01, -2.11005807e-01,  2.41773948e-03,
       -1.94450125e-01, -1.14694476e-01, -6.34035021e-02,
        1.04382366e-01, -2.17527803e-02, -1.97953656e-01,
        6.13615066e-02, -4.08589214e-01, -1.29610561e-02},
      {-7.79125169e-02, -5.26553214e-01, -8.57586265e-02,
        2.91942418e-01,  2.59603769e-01,  2.64261991e-01,
       -3.43342364e-01,  1.06577015e+00,  1.65812299e-01,
        9.89365205e-02, -1.42453194e-01,  1.25099301e-01,
       -4.10211161e-02, -2.39283238e-02,  1.18262768e+00,
        3.48202139e-02, -7.40165412e-02,  5.04245758e-02,
        5.77890873e-02, -1.30154118e-02, -8.56305838e-01,
       -2.77633388e-02,  1.86744958e-01,  1.27956644e-01,
       -6.90709949e-02,  4.05105799e-01, -2.16997638e-02,
       -1.07462674e-01,  3.86066586e-02,  3.01842302e-01,
       -3.04426521e-01,  2.40776077e-01,  9.32250470e-02,
        4.57854152e-01, -8.38011317e-03,  1.95295662e-01,
        5.38129091e-01, -1.34432569e-01,  6.66385144e-03,
        1.49603412e-01,  5.65766990e-01, -2.08336059e-02,
        4.93459180e-02,  8.04449692e-02,  3.40885460e-01,
        6.48881942e-02,  7.68873021e-02, -7.74999857e-02},
      { 2.85440087e-01, -3.23143512e-01, -3.57392848e-01,
        1.01199257e+00, -3.06193139e-02, -3.15766148e-02,
       -3.09766859e-01,  6.19995818e-02,  1.51604700e+00,
       -1.86865494e-01, -5.62519968e-01, -2.33773202e-01,
        8.20415735e-01, -4.78366315e-02,  1.44189358e-01,
        2.05813304e-01, -2.91540384e-01, -4.27454591e-01,
       -1.78814232e-01, -6.03318989e-01, -6.92122802e-02,
       -5.18866241e-01, -1.62369907e-01,  4.14706441e-03,
        2.10730478e-01, -4.01871651e-02, -9.72027183e-01,
        1.34753239e+00,  2.37251297e-02, -1.22286394e-01,
        5.24290323e-01, -1.37871042e-01, -1.06460035e-01,
       -2.78877646e-01, -2.07658894e-02,  3.53721417e-02,
       -9.74744737e-01, -3.59534808e-02,  2.53936261e-01,
       -3.51270258e-01, -9.47079062e-02,  3.65587533e-01,
       -3.21380585e-01, -2.35859871e-01,  2.28745982e-01,
       -1.28487706e-01, -3.89481813e-01, -1.02873385e-01},
      {-3.85296822e-01,  6.83142602e-01, -1.62723154e-01,
        2.15745449e-01,  7.38684312e-02, -9.17285755e-02,
       -3.46515208e-01, -1.96567273e+00, -1.96498498e-01,
       -2.24971920e-01,  4.12031770e-01, -1.25522181e-01,
        1.18932354e+00,  3.19643281e-02,  1.13783371e+00,
       -1.91955447e-01, -1.02133381e+00, -1.49311900e+00,
       -2.08441392e-01,  6.08393848e-02,  3.41204226e-01,
        5.56530714e-01,  4.59165931e-01,  1.06232989e+00,
        3.07712138e-01, -1.19909477e+00,  1.45341098e-01,
       -9.01635051e-01, -2.14066029e+00,  7.55750120e-01,
        1.54718369e-01, -6.52302206e-01,  7.80378655e-02,
        1.66202754e-01,  6.77085295e-02, -1.01451349e+00,
       -4.22033995e-01,  1.58373043e-01,  5.76581620e-02,
        1.12158768e-01, -1.11233734e-01, -1.16001463e+00,
       -1.93754107e-01,  5.00703566e-02, -1.53210640e+00,
       -2.01501226e+00,  4.69537191e-02, -1.48245782e-01},
      { 6.83592021e-01, -3.18332985e-02,  1.40077531e-01,
        3.27988863e-01,  9.39264968e-02,  1.68224070e-02,
       -2.40908265e-01,  1.16206639e-01,  1.24489498e+00,
        1.90558642e-01, -2.81331122e-01,  6.81343824e-02,
       -4.25203145e-02,  1.98363259e-01, -6.02804460e-02,
        9.36834574e-01, -1.37707636e-01, -5.09893775e-01,
        6.30100593e-02, -1.86143413e-01,  2.58092821e-01,
       -4.26342398e-01, -3.88196148e-02, -1.25520802e+00,
       -5.98088741e-01,  2.09764883e-01,  3.48343372e-01,
        6.54718935e-01, -4.03543711e-01, -1.91613793e-01,
        4.36487108e-01, -8.21499974e-02, -5.02474427e-01,
       -9.62504297e-02,  9.83695388e-02,  2.05858937e-03,
       -4.46031779e-01,  3.79388988e-01,  6.05547607e-01,
       -1.11337149e+00,  1.08529247e-01, -4.81086642e-01,
       -5.77567182e-02,  1.17384538e-01,  3.41885895e-01,
       -1.54132888e-01, -5.04307330e-01,  3.33787769e-01},
      { 3.61656509e-02,  1.36918873e-01,  5.45583777e-02,
        1.23443294e+00,  8.69029239e-02,  2.48440415e-01,
        1.40009448e-02,  1.00327599e+00,  6.45896554e-01,
        9.96348083e-01,  9.35868826e-03,  1.75576895e-01,
        4.27400202e-01,  1.26355886e-01, -2.41259679e-01,
        2.61824578e-02,  6.91393971e-01, -4.64409478e-02,
        2.39043668e-01, -7.04120174e-02,  6.43594414e-02,
       -1.75883379e-02,  8.03586841e-02,  2.41207123e-01,
       -2.49480426e-01,  1.42470658e-01, -1.42313123e-01,
       -2.19117418e-01,  1.27783406e+00,  1.08821578e-01,
        8.92993435e-02,  4.42188084e-01,  1.05613180e-01,
       -1.26366973e-01, -1.85292028e-02,  9.30137113e-02,
       -3.45739901e-01, -3.54374200e-02, -2.36722231e-02,
        7.61142492e-01, -3.56060304e-02,  3.65687102e-01,
        1.52053371e-01,  4.26619034e-03,  2.91570514e-01,
        4.77859318e-01,  6.41863281e-03,  1.34963751e-01},
      {-6.88342988e-01,  3.63185883e-01, -8.97322670e-02,
        2.77290463e-01, -1.00907370e-01,  8.63653198e-02,
       -3.39887410e-01,  4.44938987e-02,  4.27905858e-01,
        4.49523218e-02, -4.25008595e-01, -1.65044054e-01,
        1.99933946e-02,  3.84578705e-02, -1.16697200e-01,
        2.97479033e-01, -1.25864938e-01, -3.32855135e-01,
        6.60407096e-02,  4.95856017e-01,  3.14064175e-02,
       -3.27062100e-01,  1.49801493e+00, -4.90795344e-01,
       -1.75868466e-01,  1.69354796e-01, -2.29287580e-01,
        3.16812396e-01, -1.94550604e-01, -9.17883068e-02,
        2.08730906e-01, -7.61721581e-02, -1.57756090e-01,
       -2.07984716e-01, -9.50313359e-02, -8.43216106e-02,
       -6.63678288e-01, -1.53764173e-01,  5.49688458e-01,
       -4.69848365e-02,  9.18859318e-02,  4.83446196e-02,
       -8.78284499e-02,  1.02969199e-01,  3.04804385e-01,
       -2.51811206e-01, -1.16043583e-01,  7.62272775e-02},
      { 3.23401332e-01,  1.86433971e-01, -2.45403498e-02,
       -2.84332871e-01,  1.66936532e-01, -3.42569530e-01,
       -3.79045052e-03,  1.48035240e+00, -2.17666477e-01,
       -3.71272922e-01,  2.95592695e-01, -1.81394815e-01,
       -6.23530895e-02,  2.12763086e-01, -3.32360953e-01,
        7.57410824e-02, -1.08075321e-01,  7.78107420e-02,
       -2.29592547e-01,  5.25582507e-02, -8.84129405e-02,
       -1.09309874e-01,  1.20093510e-01, -2.00930402e-01,
       -1.49153978e-01,  3.13199103e-01,  7.63488486e-02,
       -2.50984341e-01,  3.23256887e-02, -2.59600163e-01,
       -3.69716048e-01,  3.47087890e-01,  1.38144000e-02,
       -6.48289561e-01,  8.18248317e-02, -2.74560481e-01,
        3.29461396e-02,  1.17429383e-01,  4.53734361e-02,
       -3.07156175e-01,  1.15257812e+00, -3.15255731e-01,
        1.45774692e-01, -3.83963466e-01,  2.69024462e-01,
       -3.66194755e-01,  5.57984635e-02,  1.29045248e-01},
      { 2.71225125e-01, -1.16730340e-01,  3.13066924e-03,
        1.17543943e-01,  2.25868270e-01,  4.32438850e-01,
        1.95962831e-01, -5.39899826e-01, -6.82647377e-02,
        7.86860809e-02,  5.81757307e-01, -1.63076505e-01,
        7.73474500e-02, -2.01734919e-02,  2.81830877e-01,
       -1.96766350e-02, -6.64157331e-01, -3.69328894e-02,
       -9.90591407e-01,  8.32454562e-02, -2.08692625e-01,
        1.68198243e-01, -6.97690025e-02, -8.03923979e-02,
        1.68419957e-01, -3.01649701e-02,  1.87108189e-01,
       -6.42711818e-02, -1.37624919e-01,  1.26357377e-01,
        2.37827525e-01, -9.62009788e-01,  2.14074045e-01,
       -2.38625959e-01,  3.49910185e-02,  6.19894229e-02,
        2.97505617e-01, -8.31392035e-03,  2.75272559e-02,
       -2.30916530e-01, -4.44542542e-02,  1.36599913e-01,
       -2.29414746e-01, -4.92404372e-01, -1.18301682e-01,
        1.20288283e-02, -3.49326804e-02,  3.00187677e-01},
      { 2.32060123e-02,  1.63529336e-01, -1.98987320e-01,
       -1.35394886e-01, -1.16668127e-01, -2.43502870e-01,
        2.66152412e-01, -4.99406755e-01, -2.64565855e-01,
        2.38071695e-01, -4.37836945e-01,  4.53372300e-01,
       -6.68582171e-02, -1.29698306e-01, -6.53974354e-01,
       -7.89098814e-03, -4.81069624e-01,  4.22840565e-02,
       -5.23735918e-02,  3.87775861e-02,  3.13382857e-02,
       -2.38837034e-01, -6.76613823e-02, -3.90563048e-02,
        3.69814008e-01, -8.82711038e-02,  1.23366408e-01,
       -2.89638191e-01, -5.19170225e-01,  1.42929077e-01,
       -1.45044476e-01, -8.52734923e-01, -1.23962186e-01,
       -1.33920801e+00, -9.15495902e-02, -6.46615446e-01,
       -3.06268841e-01,  1.69962019e-01,  1.82222333e-02,
       -7.42067993e-02, -2.14731500e-01, -1.62955999e-01,
       -2.90382653e-01,  2.39308309e-02, -3.13768208e-01,
       -1.07134908e-01,  1.60045058e-01, -2.16786593e-01},
      {-3.61513019e-01,  2.20604047e-01, -1.21519864e-01,
        2.64223754e-01,  1.93894655e-01,  1.87150151e-01,
        2.87492037e-01, -1.54155686e-01, -1.29994541e-01,
       -1.86896339e-01, -4.12848979e-01, -5.28092325e-01,
       -9.68355119e-01, -1.66005850e-01,  9.48571920e-01,
       -4.13217664e-01,  4.54807281e-01, -1.90353736e-01,
        6.02416173e-02, -8.40392411e-02, -4.19301957e-01,
       -5.24559140e-01,  1.74046719e+00, -3.05448472e-01,
        1.35140538e-01,  6.74800217e-01, -9.74288940e-01,
       -1.61100551e-01, -1.15177833e-01, -4.38094735e-01,
        1.99694291e-01,  3.79413277e-01, -1.01713113e-01,
        8.82182062e-01,  9.57560763e-02,  1.04119256e-01,
        5.35559237e-01, -2.45692998e-01,  1.04366493e+00,
        4.30389047e-02, -1.91730812e-01, -2.80451298e-01,
       -2.44472660e-02, -5.08373201e-01,  6.39620870e-02,
        3.61238390e-01, -2.25448057e-01,  4.98372614e-02}};
const model_type_weights conv2d_depthwise_bias_2[48] = {0.2186811 ,  0.17956527,  0.13701959,  0.10034151,  0.30203322,
	       -0.04585264,  0.19838369,  0.1610823 ,  0.23605728,  0.34755117,
	        0.05879933,  0.17847084,  0.26090208,  0.03758103,  0.28211495,
	        0.30238307, -0.03842851, -0.42745516,  0.11751262,  0.37121874,
	        0.03355431,  0.31319147,  0.25148168, -0.15519908, -0.14057484,
	        0.07489041,  0.38155195, -0.4008449 ,  0.21218525, -0.2681588 ,
	        0.2971415 , -0.12340606, -0.10771559,  0.11478167,  0.03615244,
	       -0.21495603,  0.3170114 ,  0.29719055,  0.40252906,  0.261552  ,
	        0.44583672,  0.32689923,  0.08811482,  0.19162056,  0.20444624,
	       -0.04842619, -0.19893281,  0.05729145};

const model_type_weights conv2d_depth_weights_3[3][3][48] = {{{-1.21788286e-01,  2.02083990e-01, -2.26775510e-03,
        -1.49226263e-01,  6.71058968e-02,  3.29051763e-02,
        -6.31749406e-02,  4.05860066e-01, -1.47047997e-01,
        -3.30218300e-02,  9.76101216e-03, -4.20996659e-02,
         2.85658568e-01,  8.94404203e-02, -5.57060651e-02,
         5.15197851e-02, -9.52675790e-02, -1.11720838e-01,
        -9.86790564e-03,  1.40839905e-01, -2.65156794e-02,
         1.02735066e-03, -2.69449651e-01, -1.34104311e-01,
        -2.34410465e-02,  4.23543416e-02,  1.32072136e-01,
         6.52397200e-02, -1.45759180e-01, -2.03202054e-01,
        -2.64095739e-02,  7.79045597e-02,  8.02164245e-03,
        -2.00683206e-01,  4.72630039e-02, -6.92796707e-02,
         4.39337909e-01, -6.18290007e-02,  3.00593644e-01,
        -2.03520238e-01,  1.12204209e-01, -8.58757570e-02,
         1.12983830e-01,  7.42077548e-03,  5.66839278e-02,
        -1.09856963e-01,  5.86566795e-03,  3.84868354e-01},
       {-4.66453619e-02,  1.62560016e-01, -2.29206705e-03,
        -8.91366452e-02, -4.90508378e-02,  2.00430695e-02,
        -5.01030460e-02,  3.19571465e-01, -2.90490575e-02,
        -2.34931596e-02,  2.13261650e-04, -5.88106252e-02,
         9.20577422e-02, -1.61465667e-02, -6.28692508e-02,
         1.74843445e-01, -1.02847300e-01, -8.49968120e-02,
        -3.44625637e-02, -3.68447453e-02, -3.61688957e-02,
         1.70897804e-02, -8.92606601e-02, -9.77281183e-02,
        -2.07834207e-02,  3.22519094e-02,  1.25096962e-01,
         5.79490513e-02, -8.38067010e-02, -9.67584625e-02,
        -2.66054459e-02,  9.63447466e-02,  1.23814493e-03,
        -3.67576256e-02, -1.10213786e-01, -4.50170934e-02,
         1.45356923e-01, -5.29383272e-02,  1.35797381e-01,
         1.73203290e-01,  1.23428635e-01, -6.77933618e-02,
         4.57117334e-02,  3.99917969e-03,  3.25077474e-02,
        -4.35550213e-02, -2.49539018e-02,  5.63219450e-02},
       {-1.50261402e-01,  1.65018633e-01, -1.28145395e-02,
        -2.50958800e-01,  2.89145738e-01,  4.62515131e-02,
        -1.40589535e-01,  5.42546511e-01, -2.03087449e-01,
        -6.17841966e-02, -4.70031016e-02, -1.07023232e-01,
         3.35380405e-01,  1.25351489e-01, -8.76620710e-02,
        -1.57778010e-01, -1.58714786e-01, -9.09222066e-02,
        -5.29060001e-03, -1.04377545e-01, -5.83477579e-02,
        -6.58726087e-03, -2.91357964e-01, -1.64528891e-01,
         1.28562916e-02,  6.04711734e-02,  1.15235880e-01,
         1.21400222e-01, -1.66956276e-01, -2.48980805e-01,
        -4.04654779e-02,  1.20795473e-01, -1.32791391e-02,
        -2.70933986e-01,  1.69834923e-02, -8.38865712e-02,
         4.22972649e-01, -4.63927500e-02,  3.48465443e-01,
        -4.56457704e-01,  1.72326773e-01, -1.11997657e-01,
         3.18488300e-01, -1.28051243e-03,  2.21591108e-02,
        -1.29733354e-01,  4.40895855e-02,  1.83991253e-01}},

      {{-5.07203043e-02,  1.09916978e-01,  6.72392140e-04,
        -7.91758969e-02, -5.22315800e-02,  2.25236695e-02,
        -1.22244498e-02,  2.22799778e-01, -1.43320132e-02,
        -5.03235124e-02,  4.36073495e-03, -1.44189680e-02,
         7.22045749e-02,  1.69275026e-03, -4.58390452e-02,
         4.32639644e-02, -1.24062551e-02, -5.33984192e-02,
        -4.10997719e-02,  4.57618386e-02, -2.52503920e-02,
         1.18249869e-02, -6.85477704e-02,  1.22309877e-02,
        -3.02669778e-02,  8.22223127e-02,  7.69878104e-02,
         6.04820698e-02, -4.01940346e-02, -3.72568741e-02,
        -1.43790254e-02,  3.72295231e-02, -5.97928045e-03,
        -6.62675649e-02, -2.02142909e-01, -9.90795419e-02,
         1.11857072e-01, -3.95723209e-02,  1.80679366e-01,
         1.58747792e-01,  7.48630911e-02, -7.69421682e-02,
         6.76670820e-02, -9.52781120e-04,  6.68848455e-02,
        -4.13232148e-02, -1.85456753e-01, -3.40355709e-02},
       {-1.56575497e-02,  1.26999170e-01, -6.13743290e-02,
        -1.55863121e-01, -2.01972336e-01,  7.48210996e-02,
        -7.91608244e-02,  2.90008754e-01, -7.60454759e-02,
        -4.67318594e-02,  5.91026396e-02, -1.36443317e-01,
        -7.88717121e-02,  7.19333515e-02, -7.68604875e-02,
         3.85417223e-01, -5.68587855e-02, -1.92838788e-01,
        -1.45036370e-01,  1.62117541e-01, -1.03163987e-01,
         9.54400599e-02,  9.47155710e-03, -4.08420749e-02,
         6.40911087e-02,  9.07929167e-02,  6.80261254e-02,
         5.15868515e-02, -3.81166525e-02,  2.09388491e-02,
        -1.06608100e-01,  1.14124186e-01, -9.09019485e-02,
        -4.72431723e-03, -2.53244162e-01, -1.11026250e-01,
        -9.90771800e-02, -9.49971601e-02, -1.20825753e-01,
         3.56063992e-01,  1.58093631e-01, -8.72771908e-03,
         1.15447164e-01,  4.86501642e-02,  6.22375458e-02,
        -5.70219867e-02, -2.76670694e-01,  4.56695668e-02},
       {-1.26146227e-01,  1.10887557e-01, -6.36541396e-02,
        -1.27772123e-01, -1.18991241e-01,  1.09291203e-01,
        -1.27241269e-01,  6.28976882e-01,  1.70899391e-01,
        -7.89688528e-02, -8.57601091e-02, -1.57982990e-01,
        -2.02170998e-01,  5.79969175e-02, -1.26629263e-01,
        -4.19947147e-01, -1.44492015e-01, -2.54244417e-01,
         8.94700736e-02, -2.82305270e-01, -1.62755430e-01,
         1.03952065e-01, -2.14731991e-01,  2.28213206e-01,
         7.31215551e-02,  1.46923974e-01,  4.01458815e-02,
         1.35033876e-01, -9.01113376e-02, -7.23762885e-02,
        -7.00743794e-02,  1.38043493e-01, -1.03543669e-01,
        -6.57138005e-02, -1.30122140e-01, -1.50885195e-01,
         1.07695349e-01, -1.22572578e-01,  3.89051624e-02,
         2.39558294e-01,  3.17061573e-01, -4.51123863e-02,
         8.59980360e-02,  1.53718144e-01,  7.72108436e-02,
        -2.54771262e-01, -3.06379348e-01,  1.79623626e-02}},

      {{-1.52854636e-01,  2.33029246e-01, -4.02164273e-02,
        -2.17442781e-01,  1.65416241e-01,  7.46338293e-02,
        -5.58464937e-02,  5.40314972e-01, -1.82972074e-01,
        -6.13431856e-02,  8.64225160e-03, -4.51280475e-02,
         2.93646336e-01,  1.63526148e-01, -1.15624696e-01,
         1.47076979e-01, -1.20752990e-01, -1.20734245e-01,
        -1.11853033e-02,  1.99803382e-01, -9.55219846e-03,
         4.07461226e-02, -3.31335366e-01, -1.59519464e-01,
        -1.44334149e-03,  1.54732913e-01,  4.80455942e-02,
         9.46857259e-02, -1.44093886e-01, -1.91280261e-01,
         5.15866699e-03,  1.13302410e-01, -3.18704620e-02,
        -2.61454940e-01,  9.17979002e-01, -1.44002676e-01,
         4.44189936e-01, -6.69929832e-02,  4.60210666e-02,
        -3.50037128e-01,  1.82788178e-01, -1.04669467e-01,
         4.06137817e-02,  4.82541695e-03,  1.74806699e-01,
        -3.12640220e-01,  1.84995562e-01,  1.35833338e-01},
       {-1.60681903e-01,  2.51722872e-01, -1.04488641e-01,
        -1.89173698e-01,  5.63660711e-02,  1.29330426e-01,
        -7.99718723e-02,  6.22725427e-01,  3.47017907e-02,
        -9.86292586e-02,  1.76154450e-02, -1.39715552e-01,
        -2.74089128e-01, -2.99348217e-03, -1.12078264e-01,
         4.96143878e-01, -2.08429649e-01, -1.82984367e-01,
        -1.37703434e-01,  2.26331919e-01, -9.72065628e-02,
         1.27256423e-01, -2.01177597e-01,  9.88093019e-03,
         1.52599961e-01,  1.26532912e-01, -3.80880535e-02,
         5.96033670e-02, -1.09526679e-01, -9.40545499e-02,
        -3.61864343e-02,  1.30855158e-01, -1.03393562e-01,
        -1.22244023e-01, -1.13129422e-01, -1.18766621e-01,
         1.39119536e-01, -1.04010105e-01, -4.08039540e-01,
         3.50379109e-01,  2.90899098e-01, -4.29333299e-02,
         6.16148226e-02,  4.79732864e-02,  2.03388497e-01,
        -2.48363331e-01,  1.50024191e-01,  2.62918398e-02},
       {-2.69994974e-01,  2.10998297e-01, -9.82275829e-02,
        -1.93920985e-01, -1.50149867e-01,  1.54764846e-01,
        -1.52327135e-01,  1.05531764e+00,  5.97793639e-01,
        -1.63710758e-01, -1.97992370e-01, -1.91724494e-01,
        -6.16088033e-01,  3.65995824e-01, -1.86504096e-01,
        -7.63234913e-01, -2.53112704e-01, -3.02769810e-01,
         2.97455102e-01, -3.38609368e-01, -9.28911120e-02,
         1.93325579e-01, -5.34404933e-01,  6.00393713e-01,
         2.68477947e-01,  3.38223994e-01, -1.06743492e-01,
         1.87236413e-01, -1.72769472e-01, -1.69758961e-01,
         6.42218888e-02,  2.60292053e-01, -1.11359052e-01,
        -2.76156723e-01, -4.46097665e-02, -2.71222830e-01,
         4.02177095e-01, -1.64907306e-01, -4.67855394e-01,
        -1.68764725e-01,  5.32919288e-01, -1.65278897e-01,
         1.01099044e-01,  2.66220689e-01,  2.43646562e-01,
        -3.32539588e-01,  1.82845771e-01,  8.71536359e-02}}};
const model_type_weights conv2d_point_weights_3[48][64] = {{-9.76328075e-01,  1.21337247e+00,  8.51378888e-02,
        -2.42280245e-01, -2.38134060e-02,  1.23295888e-01,
        -1.96450636e-01,  3.36990952e-01,  3.03450674e-01,
        -2.09687844e-01, -1.91627875e-01,  7.77761713e-02,
         3.25102270e-01, -4.20942366e-01, -3.19609880e-01,
        -4.73489426e-02, -2.20610231e-01,  1.39652416e-01,
        -1.25438526e-01,  1.54838967e+00, -2.77715381e-02,
        -1.01526074e-01,  8.30207109e-01, -5.39585292e-01,
        -3.19391698e-01, -9.93131176e-02,  7.89393485e-02,
         1.70297593e-01,  3.32095355e-01,  1.22852318e-01,
        -1.15925454e-01, -1.52691707e-01, -1.62528917e-01,
         1.07787006e-01,  5.37229240e-01, -8.26586425e-01,
        -1.61929309e-01, -6.31764755e-02, -1.91128962e-02,
         3.33739445e-02, -2.59263545e-01, -4.21494782e-01,
         5.70737906e-02, -2.74370387e-02,  3.88064951e-01,
        -1.72000349e-01, -1.77217558e-01,  1.18035786e-01,
         1.11688495e+00,  3.76269549e-01,  3.22598703e-02,
         3.56417894e-01, -7.87586868e-01,  1.92505106e-01,
        -3.33098233e-01, -2.70343065e-01,  1.16199523e-01,
        -4.85111862e-01,  1.94609776e-01,  2.60629326e-01,
         2.34421149e-01,  1.70784295e+00, -1.16309352e-01,
         9.19544548e-02},
       {-2.36273155e-01, -6.44115284e-02, -2.20503300e-01,
         5.55291116e-01, -1.16724826e-01,  5.41575849e-02,
        -1.86918855e-01, -4.89266962e-01, -2.55870759e-01,
        -3.86118531e-01, -6.17511153e-01,  2.96586426e-04,
         3.11162829e-01,  3.42037737e-01, -1.00227505e-01,
         1.39755175e-01,  1.02642756e-02, -5.91906309e-01,
        -5.80346882e-02, -1.08968146e-01, -4.18648094e-01,
        -4.11831625e-02, -4.50724065e-02, -9.17427465e-02,
         1.25838429e-01, -1.33824900e-01, -6.54446334e-02,
        -1.81559712e-01,  1.55324687e-03, -3.10256571e-01,
         7.86151648e-01, -1.50660619e-01, -5.33209205e-01,
        -1.24494761e-01, -1.58127654e+00,  9.31515694e-02,
         1.24874741e-01,  1.30477259e-02, -2.84676373e-01,
         3.19968201e-02,  6.07341766e-01,  7.70511091e-01,
        -2.51660615e-01, -1.11756027e+00, -3.49778205e-01,
         1.99333820e-02, -5.33655100e-02,  1.64160311e-01,
         4.76490885e-01, -7.75300339e-02,  2.05066666e-01,
        -1.15175164e+00,  3.68186116e-01, -2.57272482e-01,
         3.78977507e-01, -1.32096469e+00,  1.86383780e-02,
         2.42966056e-01, -1.46872327e-01, -8.71106982e-02,
        -5.98282099e-01, -4.50650424e-01,  2.11303368e-01,
         4.62942757e-03},
       { 2.55184650e-01,  1.15475738e-02, -4.21922840e-02,
         1.46537036e-01,  3.18055481e-01,  5.28247476e-01,
        -8.81869439e-03,  1.47117406e-01,  8.56385604e-02,
        -1.02396540e-01,  2.09991068e-01,  1.54820710e-01,
         3.27756926e-02, -2.30170295e-01, -2.03208417e-01,
         8.16174522e-02, -1.95362680e-02,  1.01662755e-01,
         2.45846838e-01,  1.69311151e-01,  1.61138639e-01,
        -4.14916426e-02, -1.72953736e-02, -3.61492723e-01,
         1.41192883e-01, -6.32067025e-02, -9.94498655e-02,
        -5.13517380e-01,  5.20131826e-01, -4.36596125e-01,
         5.99182546e-01, -6.37817755e-02, -3.49745423e-01,
         1.48031667e-01,  2.37812817e-01,  1.64790466e-01,
         1.42533705e-01,  8.73124823e-02,  1.39586627e-01,
        -2.02425659e-01,  1.52426034e-01,  3.19966763e-01,
        -5.51387906e-01, -2.56220371e-01,  1.92530140e-01,
        -4.03783500e-01, -3.12996447e-01,  3.90212566e-01,
        -1.19717002e-01, -3.91258270e-01, -3.46847147e-01,
        -3.78284693e-01,  2.62385309e-01,  8.96476328e-01,
         2.70144224e-01, -1.38073102e-01, -9.40031856e-02,
         1.34266943e-01, -4.00990665e-01,  7.65648723e-01,
         1.32203072e-01,  1.32722783e+00, -4.88431752e-02,
         1.42962928e-03},
       { 1.02159882e+00,  2.47156635e-01, -5.65785505e-02,
        -2.99767613e-01,  3.55956927e-02,  1.20067343e-01,
        -6.64990675e-03, -1.48628533e-01, -3.47696245e-01,
         4.72743213e-01, -4.98950481e-02, -1.30982876e-01,
         6.44035339e-02,  1.50502160e-01, -6.87759370e-02,
         3.65804642e-01,  2.57138968e-01, -1.89403743e-01,
         1.73664749e-01, -1.14553034e+00, -1.04137279e-01,
         4.60207045e-01, -4.89211470e-01,  1.66107190e+00,
        -2.87342787e-01, -1.25827014e-01, -6.92670718e-02,
        -1.38661146e-01,  1.68438244e+00,  1.41065381e-03,
        -1.24536194e-02, -1.65538564e-02,  5.46576716e-02,
        -2.15462744e-01,  3.92269343e-01,  3.87914181e-01,
         2.48783395e-01,  2.94454277e-01, -2.41901264e-01,
         1.14651710e-01,  9.48552489e-02, -5.64681768e-01,
        -5.45204990e-02,  1.20276198e-01, -2.09015444e-01,
        -2.64642835e-01,  2.86086917e-01,  2.33700410e-01,
        -8.96905083e-03, -1.33788183e-01,  1.18826866e-01,
        -1.76988035e-01,  3.01869512e-02, -1.22990452e-01,
         4.96321172e-01,  4.33653414e-01, -5.62817395e-01,
         1.00487769e+00,  9.98815373e-02, -2.52499402e-01,
         4.80196595e-01, -2.09539962e+00, -1.83404565e-01,
         3.44013385e-02},
       {-1.79320353e-03, -9.87322722e-03,  4.53105658e-01,
         3.07574533e-02, -1.07237604e-02, -2.52667367e-01,
        -4.52853702e-02,  5.38262576e-02, -1.30067110e-01,
         5.10633551e-02, -1.80606797e-01,  1.33104488e-01,
        -5.25770001e-02,  7.81208500e-02,  1.54787511e-01,
         3.63886617e-02,  9.05734580e-03,  6.63332865e-02,
         6.54558614e-02, -9.65923478e-04, -1.38150573e-01,
        -5.09455148e-03,  2.18272093e-03, -1.02833778e-01,
        -1.30068678e-02, -4.96479534e-02,  6.59403205e-02,
        -1.63455661e-02,  2.33138409e-02,  3.13616544e-01,
         3.42425629e-02,  4.09978256e-02, -6.46151230e-02,
        -3.22066317e-03, -1.10421509e-01, -7.10715950e-02,
        -2.06926286e-01,  3.32606919e-02,  4.59920056e-02,
        -2.54979208e-02, -2.58766375e-02, -3.03558391e-02,
        -4.54210080e-02, -7.78548643e-02, -5.34233963e-03,
         7.79577121e-02, -5.39394140e-01,  4.63784784e-02,
         4.01372164e-02,  3.40625420e-02,  1.25493437e-01,
         1.33263350e-01,  1.61346812e-02,  5.84341176e-02,
         7.89327323e-02, -4.93147187e-02,  5.95049141e-03,
        -6.98086387e-03, -2.12241076e-02,  2.40251705e-01,
        -6.79688528e-02,  1.81821883e-01, -1.07871734e-01,
        -3.33438329e-02},
       {-4.07087207e-02,  5.74923493e-02, -6.83786452e-01,
         1.61377490e-01, -3.72229904e-01,  4.73187864e-01,
        -1.38244942e-01, -2.02301264e+00, -8.23717356e-01,
         1.75828487e-01, -1.67256162e-01,  1.20793469e-01,
         3.67046237e-01,  8.02835152e-02, -3.48267294e-02,
         4.84490357e-02,  3.87509866e-03,  1.11302704e-01,
        -2.40734592e-02,  4.55041640e-02,  3.29624563e-01,
         6.11569174e-02, -5.50449751e-02,  3.94347101e-01,
         1.65127590e-02, -7.61311734e-03, -9.83180292e-03,
        -1.28198102e-01, -4.28968847e-01, -3.06277364e-01,
        -9.49756503e-02, -1.04785420e-01,  2.85662502e-01,
        -6.15666807e-01,  1.76895887e-01, -1.68076113e-01,
         1.26518518e-01, -1.29204184e-01, -2.55150348e-02,
        -2.56182551e-01, -3.98353674e-03, -2.59877089e-02,
         3.55366826e-01,  1.51567951e-01,  2.81534016e-01,
         3.46031755e-01, -3.25760953e-02,  2.71065325e-01,
         8.31029341e-02, -6.24462962e-01,  2.92533875e-01,
        -1.07466197e+00, -1.49332266e-02,  6.41931415e-01,
        -3.04564964e-02,  2.31831864e-01, -3.95529382e-02,
         4.86580171e-02,  5.30293167e-01,  1.23480923e-01,
         8.38091001e-02, -6.74543142e-01,  1.84131205e-01,
        -5.63454032e-02},
       {-2.45532155e-01, -1.14119977e-01,  2.37591004e+00,
        -1.56680077e-01,  5.86864986e-02, -1.28013462e-01,
         3.55904698e-01,  7.69506633e-01,  6.82723224e-01,
         2.25612685e-01,  2.77206093e-01,  2.04901144e-01,
         1.78352571e+00,  2.49540821e-01, -4.12441581e-01,
         2.82436728e-01,  8.39628163e-04, -6.33315206e-01,
         5.47522046e-02,  1.34045094e-01,  4.35355157e-01,
        -8.15308653e-03,  2.47022398e-02,  9.97907639e-01,
        -4.80475537e-02,  1.46375522e-01, -2.86066327e-02,
         2.37547413e-01, -8.86935890e-02,  4.47593153e-01,
        -5.28952619e-03,  8.00293162e-02,  4.09695178e-01,
         1.88339248e-01, -4.66080129e-01, -4.05779809e-01,
         2.08894864e-01, -9.96406153e-02,  4.57417816e-02,
        -9.64204967e-02, -2.81692445e-01,  1.84259772e-01,
        -3.74115348e-01, -2.45254636e-01,  1.56606197e-01,
         1.78623527e-01,  1.39879286e-01, -2.19392598e-01,
        -4.18084003e-02, -1.28114983e-01, -1.68713972e-01,
        -6.76843673e-02, -1.20251931e-01,  2.02000260e-01,
        -2.62689769e-01,  2.75462377e-03,  1.83845162e-01,
         1.94916353e-01,  2.85456125e-02,  2.64139915e+00,
         4.39447254e-01,  6.45749688e-01,  8.98318738e-02,
         7.55860354e-04},
       {-6.61793113e-01, -8.22585046e-01, -7.26317987e-02,
         1.38570440e+00, -1.01098374e-01, -1.43420115e-01,
        -4.10419416e+00, -5.14651775e-01, -1.12499043e-01,
         1.23168878e-01,  5.10591984e-01, -1.61326796e-01,
        -3.42233069e-02, -1.93344131e-01, -3.15737486e-01,
        -1.43582493e-01,  7.46300742e-02, -1.93038061e-01,
         2.78520972e-01, -8.59150350e-01, -8.77494574e-01,
        -3.65951546e-02, -1.34243146e-01, -2.82478452e-01,
         3.28581274e-01, -7.47334063e-02, -7.95154199e-02,
        -5.27556762e-02,  6.48131743e-02, -3.34777460e-02,
         1.19606309e-01, -5.35816073e-01, -1.28009748e+00,
        -9.75218043e-02, -6.57110870e-01,  1.68041378e-01,
         1.04783647e-01, -1.87429965e-01, -3.93790841e+00,
        -8.27312469e-02,  2.80269772e-01,  4.71339285e-01,
         4.18123566e-02, -3.94705348e-02, -6.16731904e-02,
        -4.29801606e-02, -5.04259542e-02, -4.46548052e-02,
         3.03218931e-01,  2.03700736e-02,  1.85787141e-01,
        -3.59062284e-01, -3.27584922e-01, -4.99124192e-02,
        -2.72471339e-01, -4.25662088e+00,  1.94458321e-01,
         1.86839908e-01, -2.21536756e-01, -1.87734500e-01,
        -1.30639330e-01, -1.58265233e-01,  5.68514951e-02,
         5.17522469e-02},
       {-2.25078538e-01, -2.04419438e-03,  3.18742245e-02,
        -3.74377519e-02, -2.65897438e-02, -1.11206263e-01,
        -5.10049425e-02,  6.17115311e-02,  1.30266920e-01,
         4.68570627e-02, -3.32907498e-01,  1.42066283e-02,
         1.09613463e-01, -1.32712275e-01,  3.42226624e-01,
        -3.59936766e-02,  2.51911283e-01,  1.53914556e-01,
        -1.98626503e-01,  5.22386491e-01, -1.72064930e-01,
         5.87135971e-01, -2.75891972e+00, -8.93978998e-02,
        -8.50647781e-03,  7.61036873e-02,  9.23460573e-02,
         8.67212638e-02,  6.32274523e-02, -6.33130893e-02,
         2.03225147e-02, -1.80272833e-01, -3.02670687e-03,
         2.06328481e-01, -5.38978696e-01, -2.22504973e-01,
         1.27545640e-01, -3.66179608e-02,  1.55195475e-01,
        -1.16874150e-03, -1.81354452e-02,  5.99493265e-01,
        -1.16656579e-01,  3.00294757e-01,  2.67871797e-01,
         7.99481943e-02, -9.33360308e-02, -5.72035611e-02,
         4.05364186e-02,  1.83423877e-01, -1.39228418e-01,
        -1.89770520e-01,  6.37758225e-02,  2.04177678e-01,
        -3.55146304e-02,  2.78790325e-01,  1.47884637e-01,
         9.40858424e-02,  5.49013875e-02, -1.75737292e-01,
         2.88117260e-01,  1.10854074e-01,  4.31630202e-02,
        -2.90076025e-02},
       {-1.26246214e-01,  1.77050948e-01,  6.72640324e-01,
         1.09274536e-01,  5.20701110e-01,  5.36462292e-02,
         6.49504364e-01, -3.52455884e-01,  1.58418655e-01,
         2.75933325e-01, -6.38925061e-02,  8.68849903e-02,
         3.53419334e-02,  3.62637162e-01,  4.01168972e-01,
        -3.28639239e-01, -4.17648740e-02,  2.52285779e-01,
         1.06073171e-01, -2.14992538e-01,  6.41647875e-02,
         2.76511341e-01,  1.72824800e-01,  6.13111913e-01,
         3.45454435e-03,  4.50580150e-01, -5.68473972e-02,
         1.70080498e-01, -5.43961048e-01,  2.54689872e-01,
        -1.08576484e-01,  1.09493576e-01, -6.72517776e-01,
         6.85602278e-02,  6.22363508e-01,  3.37738752e-01,
         1.78427309e-01, -1.58033267e-01,  2.49330193e-01,
         1.42897889e-01, -2.41293356e-01,  1.88149929e-01,
        -1.96745768e-01, -1.77281573e-02, -5.58280528e-01,
        -4.73173916e-01, -3.38927180e-01, -2.88845509e-01,
         6.85102344e-01, -1.68481365e-01,  4.23695266e-01,
        -3.84051263e-01, -5.54694980e-02, -5.56252489e-04,
        -8.92045423e-02,  8.98805380e-01, -7.29990005e-02,
         4.98636335e-01,  3.02938879e-01,  7.19361100e-03,
         3.29902321e-01,  1.76177502e+00,  1.38228573e-02,
        -6.60887882e-02},
       { 2.79750466e-01, -8.20776541e-03, -8.71923473e-03,
        -1.17266141e-01, -1.19728938e-01, -7.36634731e-02,
        -5.65072969e-02, -3.11120063e-01, -2.99411833e-01,
         2.30881572e-02,  4.70748097e-01, -7.95534402e-02,
         5.83975464e-02, -9.06019360e-02, -5.91710508e-01,
         1.07545473e-01,  3.91491391e-02,  7.84874380e-01,
        -7.90989697e-01,  1.71839166e-02, -3.41783725e-02,
         9.65856540e-04, -1.56916007e-02,  2.87887454e-01,
        -2.96408124e-02, -1.48274400e-03, -7.86386710e-03,
         3.34755965e-02, -1.30291298e-01,  2.75105238e-01,
        -3.82952057e-02, -1.89753488e-01, -1.39187798e-01,
         1.93910614e-01,  6.68753684e-01,  1.75237539e-03,
         7.10875019e-02,  2.12559644e-02,  3.93209048e-02,
        -1.62430629e-02,  6.28294349e-01,  1.36200920e-01,
         1.76506758e-01,  2.38876954e-01,  4.24194247e-01,
        -2.58971483e-01, -1.27477840e-01, -7.86277175e-01,
        -1.42396033e-01,  4.37098257e-02, -2.41521299e-01,
        -1.51973084e-01, -7.63891786e-02,  5.59346452e-02,
         1.78491950e-01, -1.44539148e-01,  4.27725799e-02,
         5.36317825e-02,  4.03369293e-02, -8.40356350e-02,
         7.38643929e-02,  9.13037777e-01, -1.12431057e-01,
         2.15468579e-03},
       { 2.96761364e-01, -1.81609035e-01,  2.67173331e-02,
         7.49721006e-02, -2.61793077e-01, -2.24625871e-01,
         7.17710033e-02,  1.23456374e-01,  1.01061173e-01,
         7.00225055e-01,  4.88715619e-01,  2.09910318e-01,
         6.08411551e-01,  9.02360439e-01,  3.81494373e-01,
         2.33020633e-01,  9.07732844e-02,  6.15839064e-01,
        -3.59381735e-01, -1.41753376e-01, -1.27219096e-01,
         3.95672582e-02, -1.43993124e-01,  6.83340654e-02,
        -3.85043398e-02, -1.65438741e-01,  6.44866824e-02,
        -4.59485613e-02, -1.18419237e-01, -1.57530040e-01,
         4.24412731e-03,  2.81364918e-01, -3.15711707e-01,
         1.46277353e-01,  8.61271083e-01, -2.84822255e-01,
         2.52515018e-01,  6.84461743e-02, -1.72596425e-01,
         4.83243726e-02, -5.76706171e-01,  9.83675539e-01,
        -3.41776133e-01,  8.34461808e-01,  3.60892415e-01,
        -7.40775168e-02, -4.52159382e-02, -4.44317353e-04,
         5.75264454e-01,  7.38437101e-02,  1.65011004e-01,
         5.27509451e-02,  5.45339465e-01,  3.16015601e-01,
         3.27749729e-01, -4.14006203e-01,  1.13824695e-01,
         6.23372793e-01,  2.14204192e-01,  2.09056407e-01,
        -5.77094965e-02, -2.31296554e-01,  9.00267482e-01,
         1.38334423e-01},
       {-3.40821110e-02,  1.40126776e-02,  7.06754476e-02,
        -1.48896305e-02,  6.98931590e-02, -1.00272916e-01,
        -5.84105812e-02, -2.00394765e-02,  1.46466821e-01,
        -9.03065801e-02,  5.35802133e-02, -3.69504653e-02,
        -1.56447943e-02, -1.73428711e-02, -1.26995102e-01,
        -1.46478012e-01, -5.46547353e-01, -2.99068410e-02,
        -3.10801744e-01, -5.79850338e-02,  4.73452508e-01,
         2.25224733e+00,  2.36572642e-02,  3.13565612e-01,
        -2.21215263e-01,  2.09413376e-02,  6.55709878e-02,
        -2.46143038e-03,  1.01101294e-01,  8.08743164e-02,
        -2.01970607e-01,  5.47741354e-02,  1.16945051e-01,
         7.45057836e-02,  2.98183803e-02, -4.14528400e-02,
        -1.68614581e-01,  1.69681627e-02, -1.57387003e-01,
        -3.33940119e-01,  1.99221388e-01, -2.68097371e-01,
        -9.98616293e-02, -2.21181601e-01,  5.13684899e-02,
         5.12005836e-02,  1.89308643e-01,  3.06101460e-02,
         2.66325712e-01,  2.97761653e-02,  3.43743674e-02,
         7.60459155e-02,  3.26514058e-03,  4.95813414e-02,
         1.50447264e-01,  1.09722652e-01,  2.97502875e-01,
         1.07558653e-01,  1.09431453e-01, -1.66395441e-01,
         2.86427065e-04,  6.71496809e-01,  1.73363625e-03,
        -4.47448390e-03},
       { 9.49545670e-03,  4.33134399e-02,  2.97761083e-01,
        -1.31040350e-01, -2.38488898e-01, -1.66580871e-01,
         1.37423769e-01,  1.32450506e-01,  9.46337283e-02,
         1.27911970e-01, -9.38544702e-03, -2.35189840e-01,
         6.88599125e-02, -8.33353773e-02, -1.90147191e-01,
         1.94996789e-01, -2.09800936e-02,  1.69503577e-02,
        -2.95595508e-02,  1.04900524e-02,  1.36618167e-01,
         2.37773336e-03, -4.87177186e-02,  1.31518528e-01,
        -5.01111858e-02,  2.81855643e-01, -3.15057963e-01,
         7.93357491e-02,  9.06459019e-02,  1.42531544e-01,
        -2.71831863e-02,  1.03762019e+00,  4.08707947e-01,
         1.24406159e-01,  1.28021270e-01,  1.31471604e-01,
        -2.19335765e-01,  1.95800513e-01,  3.65906268e-01,
        -1.31936401e-01,  1.42104346e-02, -6.71657741e-01,
         1.18533909e-01, -5.24529368e-02,  3.85715440e-02,
         1.61815733e-01, -4.00877267e-01, -1.60340175e-01,
        -2.86904383e+00,  1.01810694e-01, -5.89530505e-02,
        -1.25890777e-01, -3.59723642e-02,  1.76080689e-01,
        -7.18436390e-02,  2.48258486e-01,  7.26406649e-02,
         3.03900719e-01,  2.40652598e-02,  3.33883047e-01,
         1.34587307e-02, -4.26732957e-01, -3.72260958e-01,
         3.90695810e-01},
       { 2.05180883e+00, -3.53530854e-01,  3.00395310e-01,
         2.18555510e-01,  3.47125307e-02, -1.22981392e-01,
        -1.77677050e-01, -2.74752349e-01,  9.95669588e-02,
        -1.94255084e-01, -5.73041618e-01,  1.80174649e-01,
        -2.79943436e-01,  2.07314283e-01,  2.66452730e-01,
        -3.91111290e-03,  3.61141562e-02,  5.40303767e-01,
        -3.23552847e-01, -1.03554177e+00,  3.17665011e-01,
         3.78431022e-01, -5.30975342e-01, -2.22541630e-01,
        -4.42945898e-01,  7.87279457e-02,  1.62104040e-01,
         9.67901573e-02,  3.31581402e+00, -3.04667954e-03,
         1.09878945e+00,  3.96470688e-02, -1.25863582e-01,
         1.38685569e-01, -7.32944980e-02, -9.36072096e-02,
         2.07495257e-01, -2.57389825e-02, -7.11473227e-01,
        -3.10564995e-01, -4.95411903e-01, -1.34661749e-01,
         1.56182423e-02, -4.63964343e-01,  2.87705928e-01,
        -9.00832340e-02,  9.63600874e-02,  3.07334185e-01,
         1.32651597e-01,  3.25718582e-01, -2.50790138e-02,
         1.56760320e-01,  1.18315518e+00,  5.81464648e-01,
         1.96710333e-01,  1.83633476e-01,  3.36959332e-01,
         4.51262653e-01, -1.82232648e-01,  6.64900541e-02,
        -2.27330059e-01,  2.51971275e-01,  3.81516591e-02,
         1.88427255e-01},
       {-3.88544658e-03,  5.44979461e-02, -9.44798291e-02,
        -1.86094269e-02,  1.59121960e-01,  6.89060390e-02,
         3.21607977e-01, -1.34014159e-01, -1.02885880e-01,
         9.29249942e-01,  8.54621172e-01, -1.78589314e-01,
        -1.97463140e-01, -6.06831424e-02, -3.30963850e-01,
        -1.47224769e-01, -4.48389202e-02, -8.26161325e-01,
         1.24871635e+00,  2.55643707e-02, -3.61062326e-02,
        -2.24954868e-03,  3.03569380e-02, -1.85918882e-01,
        -8.00568834e-02, -2.73552369e-02, -1.71809476e-02,
        -9.39430520e-02,  4.92172688e-02, -9.15298462e-02,
        -3.12782526e-01, -2.71499544e-01,  4.40656431e-02,
        -2.51864102e-02,  9.35806930e-01,  1.17057636e-01,
         7.33224377e-02, -3.21573727e-02,  3.01738884e-02,
        -5.24579361e-02, -8.70839477e-01,  2.32046500e-01,
         1.55185089e-01,  6.88539684e-01, -8.28516424e-01,
        -1.82144672e-01, -5.52832410e-02,  5.35060883e-01,
         1.22492515e-01,  9.10712406e-02, -3.72017138e-02,
        -2.15242743e-01, -1.66943252e-01, -4.36005741e-02,
        -4.26385194e-01,  2.60528624e-01, -5.00859395e-02,
        -5.14434874e-02, -1.97262317e-02,  3.29829864e-02,
         9.80503485e-02, -1.33077502e-01, -1.20906658e-01,
        -2.95045059e-02},
       {-1.13596126e-01,  5.10070175e-02, -5.42968869e-01,
         2.11493343e-01, -2.54142135e-01, -3.18231545e-02,
        -7.49349833e-01, -2.83294499e-01, -8.43762815e-01,
         1.07853264e-01,  1.53725728e-01, -3.90105695e-02,
         4.33430448e-02, -2.49114290e-01, -4.22584534e-01,
        -1.45221993e-01,  4.19541925e-01,  1.38188183e+00,
         4.06586438e-01,  1.22054219e-01, -9.41267982e-02,
         1.59847200e-01,  2.83478290e-01,  5.25012553e-01,
        -2.20719557e-02,  5.58637977e-02, -4.06580493e-02,
        -1.16404188e+00,  6.60056233e-01,  5.26213884e-01,
        -4.04527664e-01, -2.36425936e-01,  3.35298836e-01,
        -2.26390079e-01,  5.09462535e-01, -9.75624844e-02,
        -1.36464685e-01,  7.42184818e-02,  4.69809026e-02,
        -1.29476413e-01,  2.09949076e-01, -3.84435147e-01,
         2.78866470e-01,  3.49147856e-01,  2.34021172e-01,
         1.81759402e-01,  4.04119164e-01,  5.54566562e-01,
         1.09236546e-01,  1.15354776e+00, -4.31970447e-01,
         4.71781760e-01, -3.15566480e-01, -4.77062821e-01,
         3.19359541e-01, -1.74120381e-01, -4.79139313e-02,
         1.31936789e+00, -4.28502053e-01, -1.49105132e-01,
        -6.43615648e-02, -8.85803342e-01,  3.55238840e-02,
         5.70648350e-02},
       {-5.63610941e-02,  3.16611648e-01,  1.74718490e-03,
         1.24064349e-01,  4.44628716e-01,  3.04040343e-01,
         7.48414546e-02,  3.54549438e-01, -1.20484540e-02,
         2.05416158e-02,  2.49331713e-01,  1.31053990e-03,
         4.43679951e-02, -5.00495434e-02, -1.71870947e-01,
        -3.03274952e-02,  1.18295148e-01,  6.45841882e-02,
         1.66131631e-01,  2.52537280e-01,  1.40798613e-01,
        -5.42318746e-02,  1.16733266e-02, -6.21014349e-02,
        -5.48859954e-01,  5.37283123e-02,  1.17218550e-02,
         1.02561489e-01, -1.33682087e-01,  2.50500031e-02,
         2.48051271e-01, -2.37375293e-02,  1.77112132e-01,
        -7.07403645e-02,  6.43673778e-01, -2.68475935e-02,
         2.06164852e-01, -5.88692784e-01,  1.59285843e-01,
        -6.16136892e-03,  2.86902249e-01,  4.54378277e-01,
         2.62014896e-01, -9.66390520e-02, -6.13685250e-02,
        -1.58163071e-01,  6.81500286e-02,  3.08634043e-02,
         2.86712313e+00, -1.00657484e-02,  1.87417880e-01,
         8.02539364e-02,  1.11263871e-01, -4.18629907e-02,
         5.04271314e-02,  4.95347530e-02, -6.79084361e-01,
         1.68468989e-02,  6.77924138e-03,  9.46474224e-02,
        -6.17646091e-02, -4.60943431e-01,  1.88116252e-01,
        -7.26251185e-01},
       {-1.46087408e-01,  7.30994390e-04, -4.94230054e-02,
        -1.15365991e-02,  2.22086278e-03,  1.21438086e-01,
        -5.71735978e-01, -3.32679123e-01, -1.78059340e-01,
         2.65384614e-01, -1.18851297e-01,  8.36533979e-02,
        -1.81576852e-02, -9.21825171e-02,  8.44800115e-01,
         3.45410593e-02, -2.74968389e-02, -1.30052641e-01,
        -1.07248267e-02,  3.74373421e-02, -8.79347846e-02,
        -1.92186190e-03, -7.23241502e-03, -1.21116869e-01,
         4.97680437e-03, -3.63873541e-02,  2.47615464e-02,
         3.21099088e-02, -8.51863697e-02,  1.32134128e-02,
        -1.69319481e-01, -5.84570505e-02, -1.36228710e-01,
         9.01810750e-02, -4.90413249e-01, -7.45859146e-02,
         1.95993036e-01, -2.38735192e-02,  5.96016943e-02,
        -3.11614759e-02, -2.60718256e-01, -3.37582260e-01,
         1.99710298e-02, -7.39135444e-02, -9.63714570e-02,
        -4.51241359e-02,  1.98322371e-01, -1.36603400e-01,
         9.03391838e-02,  1.02878944e-03, -2.12404221e-01,
         7.32531724e-03, -2.53245592e-01, -7.99133033e-02,
        -2.27273125e-02, -6.06132522e-02, -4.00247015e-02,
         4.67701256e-02, -1.20238081e-01,  1.43917814e-01,
        -9.39806327e-02, -7.23458648e-01,  3.15232165e-02,
         1.38817998e-02},
       { 5.09719476e-02, -4.88240831e-03, -7.02920929e-02,
         1.46779222e-02,  7.76343979e-04, -1.82172894e-01,
        -2.12472022e-01,  8.35232884e-02, -1.16095193e-01,
        -9.23703194e-01, -6.75576599e-03,  1.28667310e-01,
         2.07145303e-01,  1.63089663e-01, -5.64682670e-02,
        -1.72700241e-01, -1.75979212e-02,  3.12402755e-01,
        -9.47839558e-01,  1.59065705e-02,  1.62631854e-01,
        -6.52991012e-02,  3.10726836e-02,  6.63747787e-02,
         4.05383594e-02,  5.33429198e-02,  2.20282637e-02,
         7.23610574e-04, -4.75784317e-02, -6.41864687e-02,
        -5.73944673e-02,  3.60028632e-03, -2.50269733e-02,
        -4.95461710e-02, -7.64022768e-02,  2.26281896e-01,
        -6.49368241e-02,  2.08399892e-02,  3.42918783e-02,
        -1.04118727e-01,  6.57389939e-01, -2.96961982e-03,
        -7.62196407e-02, -2.30927527e-01,  7.96343565e-01,
        -1.47222411e-02, -1.34005144e-01, -2.24867985e-01,
        -1.70277223e-01, -6.75714612e-02, -1.12830624e-01,
        -2.24508140e-02,  1.14994481e-01,  4.55869026e-02,
         1.34517491e-01, -2.53919028e-02,  2.82241069e-02,
        -2.61476964e-01, -1.07016899e-01,  1.16322801e-01,
        -8.65872428e-02,  5.37451953e-02, -2.21677916e-03,
        -1.59440041e-02},
       {-3.76909703e-01, -8.75465572e-02,  2.91173667e-01,
        -6.74136057e-02,  1.59564361e-01,  4.90521818e-01,
        -8.37077275e-02,  9.80491757e-01,  3.80438536e-01,
         9.21727717e-02,  4.23200503e-02,  2.40699500e-01,
         1.19510543e+00,  3.33274722e-01, -1.13176689e-01,
         3.72202173e-02,  6.30828142e-02, -6.30915388e-02,
         2.05913559e-01,  3.43523286e-02,  1.54239506e-01,
         6.40223846e-02,  1.28544429e-02,  1.23799276e+00,
        -9.76209491e-02, -3.68168652e-02,  1.10362982e-02,
        -1.42229600e-02,  5.60163617e-01,  3.69117528e-01,
         1.00188889e-01, -5.55984601e-02,  2.47873127e-01,
        -1.17504939e-01,  3.02151650e-01,  1.12652928e-01,
         1.47901729e-01,  1.24708906e-01,  1.13391683e-01,
         1.54606074e-01,  6.47744119e-01, -3.85182410e-01,
        -4.60541606e-01,  2.52364546e-01, -1.29434923e-02,
         1.75065786e-01,  7.45297447e-02,  4.78298545e-01,
         8.61910731e-02,  4.83627647e-01, -2.62749791e-01,
        -2.33700752e-01,  6.71124980e-02,  2.36976132e-01,
         5.68191528e-01,  1.18360484e+00,  9.81847271e-02,
        -2.47137114e-01,  7.66465724e-01,  9.61576819e-01,
        -1.48674458e-01, -8.86846542e-01,  1.25224710e-01,
        -5.86528331e-02},
       {-1.36819983e+00,  5.67354321e-01, -1.16059348e-01,
        -2.96303928e-02, -1.40505016e-01, -1.64973229e-01,
        -1.01833276e-01, -9.57856998e-02,  1.78413782e-02,
        -3.91152352e-01, -6.99863195e-01, -7.91607648e-02,
        -3.23744148e-01,  6.31591231e-02, -1.13704717e+00,
        -2.85148352e-01, -1.52187735e-01,  2.08421126e-01,
        -7.10631847e-01, -1.24990356e+00, -4.39270698e-02,
        -2.05911905e-01,  1.26270279e-01, -2.24262089e-01,
        -1.76171339e+00, -4.33847122e-02, -6.91357553e-02,
        -1.72974482e-01, -2.22019255e-01, -8.24764073e-02,
         1.73463330e-01, -1.62568375e-01, -3.30707520e-01,
         3.19561400e-02,  5.38139999e-01,  5.89622334e-02,
         2.85973400e-02, -3.89568329e-01,  3.31431255e-02,
        -1.47539765e-01, -2.63008237e-01, -4.77526426e-01,
         1.66897058e-01,  5.95225632e-01, -9.59787965e-01,
        -5.14323115e-01, -2.98574954e-01, -2.83185303e-01,
        -8.98829922e-02,  2.46620085e-02,  1.19864069e-01,
         9.99242142e-02, -1.68147075e+00,  1.50122806e-01,
        -1.25373989e-01,  2.58553643e-02, -3.80089474e+00,
         1.93106338e-01,  1.85723230e-01,  3.06732077e-02,
        -2.18905844e-02,  2.13805497e-01, -3.94913703e-02,
        -1.13110274e-01},
       {-5.12237906e-01,  1.78540230e+00, -7.77028799e-02,
        -6.79651499e-01, -4.19042595e-02,  1.23790562e-01,
        -3.07672650e-01,  4.82772976e-01,  1.49363562e-01,
        -3.54505032e-02,  9.46159810e-02,  2.69129694e-01,
         1.41547509e-02, -3.26054573e-01,  1.77481785e-01,
        -2.42715068e-02, -8.53100538e-01,  2.79824948e-04,
        -3.21433018e-03,  1.28380525e+00,  4.49837655e-01,
        -6.81757629e-01,  1.01684250e-01,  1.31135164e-02,
        -9.43714797e-01,  1.41508773e-01,  1.43321706e-02,
         1.22586325e-01,  3.99266154e-01,  1.87840879e-01,
         2.63758123e-01,  4.89667952e-02,  1.12322152e+00,
         3.40740412e-01,  4.23818737e-01, -7.85552084e-01,
        -1.70326233e-01,  6.02791533e-02,  3.45125943e-01,
        -1.72687117e-02,  5.09733558e-01, -1.59243375e-01,
        -1.95515491e-02, -2.52388660e-02,  7.58268684e-02,
        -6.45391166e-01, -1.01070866e-01,  5.10951579e-02,
        -4.90642674e-02,  4.04301226e-01,  4.01211798e-01,
         4.84966785e-01, -7.61023045e-01,  3.42006952e-01,
        -4.68394279e-01, -7.84988880e-01,  8.44424844e-01,
         2.29494765e-01, -4.81817663e-01,  1.11072683e+00,
        -1.40481710e-01,  5.68956792e-01, -7.66998976e-02,
         9.21289809e-03},
       {-3.05480838e-01,  1.57598510e-01,  4.81835604e-02,
        -2.03572549e-02,  8.62660483e-02, -2.08088264e-01,
         1.10608272e-01, -3.61846894e-01,  2.53254890e-01,
         1.00981735e-01, -5.18703938e-01,  1.61344007e-01,
        -5.37738129e-02, -1.78267956e-01,  3.14536989e-01,
        -1.08938724e-01,  7.89218724e-01, -1.51152954e-01,
         2.37206653e-01, -1.87365413e-01,  1.54596390e-02,
        -1.90395629e+00, -3.19156110e-01,  3.98944467e-01,
        -3.82241905e-02,  1.41524523e-01,  1.22498058e-01,
         1.04233146e-01,  1.97567821e-01,  6.93099946e-02,
        -6.33921504e-01,  6.47178339e-03, -3.62631410e-01,
         1.67571440e-01, -2.52250671e-01, -1.03013583e-01,
        -2.02607885e-01, -9.24937278e-02, -7.92228244e-03,
        -3.83364350e-01, -5.52514374e-01, -1.07587683e+00,
         1.05138533e-01, -8.71778876e-02, -2.91575432e-01,
         1.28989697e-01,  1.55234605e-01,  2.03284651e-01,
         2.30965614e-01, -2.54277885e-03,  1.69458568e-01,
        -4.53515589e-01,  3.80796269e-02,  1.38092682e-01,
        -4.75377962e-02,  3.36269960e-02, -1.44909009e-01,
         2.28464425e-01, -1.21105641e-01, -2.25552619e-01,
        -2.56691188e-01, -8.43381107e-01,  1.09511934e-01,
        -1.04650082e-02},
       {-4.93533492e-01, -2.25770652e-01, -5.05855024e-01,
         8.00962746e-02, -1.44105405e-01, -1.10192217e-01,
         3.13092247e-02, -5.46893403e-02, -5.25889218e-01,
        -4.70043987e-01, -3.81881177e-01, -1.97172761e-01,
         1.46179155e-01,  8.70333463e-02, -8.38283777e-01,
         9.57322776e-01, -3.50007303e-02, -9.00389135e-01,
        -3.61710906e-01,  3.27047966e-02, -2.69234210e-01,
         6.72355741e-02, -5.19488659e-03, -6.83932126e-01,
         3.42829376e-02,  1.35772422e-01, -3.15138400e-01,
        -1.18493088e-01,  7.02671185e-02, -1.16342649e-01,
        -2.15786174e-02, -2.27327600e-01, -7.52398789e-01,
        -4.69801612e-02, -7.41010249e-01,  2.40433887e-01,
        -1.01676978e-01, -1.98294073e-01, -4.74329889e-02,
        -9.08646211e-02, -4.60298002e-01, -3.05513799e-01,
        -4.58273917e-01, -2.67581373e-01, -5.21266580e-01,
        -3.95630866e-01, -2.07740918e-01, -2.09923089e-01,
        -6.03128970e-01, -1.91042006e-01, -2.68763095e-01,
        -2.33360544e-01, -2.62941986e-01, -8.53762850e-02,
        -3.16647917e-01, -2.69319057e-01, -4.26662937e-02,
        -1.20998748e-01, -8.74851272e-02, -4.21172500e-01,
        -4.34043616e-01, -4.05049652e-01, -4.88314003e-01,
         1.13495819e-01},
       { 3.63341570e-02,  7.52917528e-02, -6.33919096e+00,
         1.48516417e-01,  1.74351469e-01, -1.58225209e-01,
        -5.60342185e-02,  2.93825984e-01,  3.34876537e-01,
        -3.01692128e-01, -3.88120711e-01, -2.14706898e-01,
        -1.81928718e+00,  6.51958942e-01,  8.75743404e-02,
        -9.00953785e-02, -3.32926661e-02, -7.32077807e-02,
        -3.13876681e-02, -6.36200979e-02,  9.45432261e-02,
        -1.66630931e-02,  1.47974500e-02,  7.65675083e-02,
         8.77560228e-02,  1.59804691e-02, -8.49927068e-02,
         6.36791363e-02, -1.90868109e-01, -3.09530556e-01,
        -3.88056695e-01,  3.53365354e-02, -1.46787107e-01,
        -2.71709770e-01, -4.10358012e-01,  2.29730502e-01,
        -6.27188757e-02,  5.34026027e-02, -1.44097209e-01,
        -1.03531018e-01,  2.93486476e-01, -2.48721644e-01,
        -1.03321068e-01, -4.88049895e-01, -2.15348512e-01,
         4.50052507e-02, -3.58425230e-01, -1.26173407e-01,
         2.06521690e-01, -7.98784256e-01, -2.22687684e-02,
         3.86756390e-01, -1.82291582e-01, -6.56224668e-01,
        -1.09224975e+00, -7.74241626e-01, -8.73346552e-02,
         2.69086719e-01, -1.27129209e+00, -2.85468030e+00,
        -2.47704148e-01,  1.36248901e-01, -1.01261683e-01,
        -2.03687930e-03},
       { 7.07402527e-02, -5.18925674e-02,  4.33228612e-01,
         2.03289211e-01, -2.64955938e-01,  3.33010733e-01,
         1.85285151e-01,  4.50682610e-01,  3.24782491e-01,
        -1.96911201e-01, -6.27884269e-01,  6.18992448e-02,
        -8.11692953e-01, -2.37742290e-01,  2.12589338e-01,
        -6.69365346e-01,  1.00911260e-01,  5.92857972e-02,
        -2.25554973e-01,  4.40295376e-02, -3.08265567e-01,
         1.61859453e-01, -5.83263934e-02,  1.40786581e-02,
        -7.08591491e-02,  6.07219696e-01, -1.51811153e-01,
         2.42210738e-03,  3.09919983e-01,  1.69923663e-01,
